nep4 2 Cu Sn 
cutoff 5 5 108 108
n_max 4 4
basis_size 8 8
l_max 4 2 0
ANN 30 0
 -1.2214496e+00
  3.9088078e+00
 -6.4697254e-01
  1.1262830e-01
 -7.8088827e-02
 -7.8236794e-01
 -4.9988968e-05
 -3.1513151e-02
  3.1125960e-03
 -5.3955597e-04
 -2.1468990e+00
 -2.6482677e+00
  1.7955796e-01
 -1.0633792e+00
 -8.1871098e-05
  2.9673672e-01
  1.2938458e+00
 -5.1383173e-01
  8.2535928e-01
  2.2487667e+00
  3.0866420e-05
 -3.3834736e+00
 -8.7314904e-01
  2.6904562e-02
  8.2581776e-01
 -1.1972534e-02
  2.6656259e-04
 -6.4884000e-03
  1.0469661e-03
 -1.3185789e-04
  2.1638900e-01
 -4.6083510e-02
  2.0905533e-01
  1.1521126e+00
 -2.7039652e-03
  1.2874252e-01
 -1.8474454e-02
  6.4066844e-03
  1.1993309e-03
  1.0934779e-03
  1.9804130e-03
 -2.6232660e-01
 -2.4705241e-02
 -5.0678775e-02
 -3.1126544e-04
  7.1608420e-03
  1.4331456e+00
  1.7642995e+00
 -8.3054048e-01
 -6.7661968e-03
  4.0141447e-03
  1.3635665e-02
 -1.7289013e-01
  8.7260258e-01
 -1.7660251e-02
  2.7918273e-03
  1.7007537e-03
  7.1040844e-04
 -3.4890232e-05
  2.7499029e-03
 -8.2554257e-01
 -3.5864601e+00
  4.7962934e-01
  2.6102648e+00
 -1.4003241e+00
  1.3304773e-02
  1.5639164e+00
 -5.9604330e-04
 -5.7323423e-04
  4.9474887e-03
  3.8550100e-01
 -6.7877774e-03
  1.8552924e-04
 -9.5558643e-02
  8.2707959e-01
  9.5036250e-01
  2.9933292e-01
 -1.1314044e+00
  3.5444355e-01
  1.8992135e-01
 -2.3435616e-01
 -9.0123992e-03
 -1.9530610e+00
  2.9880548e-01
 -1.0633246e+00
 -1.9942746e-04
  1.0162915e+00
 -1.4729425e-01
  5.0247363e-03
 -1.3833273e-05
  4.5060879e-01
  5.5945379e-01
 -5.0755614e-01
  2.1570406e+00
 -2.0427525e+00
 -5.9446508e-01
  1.1682061e+00
 -1.3029861e-01
 -1.8042809e-03
  2.8988067e-03
  9.9347334e-04
 -2.9580498e-01
 -8.1423002e-01
 -9.3845165e-01
 -4.0798351e-01
  1.4071608e+00
 -7.8351241e-01
  1.5371060e-01
 -3.1189996e-01
  1.3730035e-04
 -1.6156288e-02
  9.2563826e-01
 -5.1915729e-01
  8.3234310e-01
 -2.9146621e-01
  8.3538818e-01
  1.2041349e+00
  6.6812928e-03
 -8.5573376e-04
  6.3823813e-01
  6.8695052e-03
 -3.5402526e-03
  5.2865245e-03
 -5.0194579e-04
  6.8244396e-04
 -7.5123436e-04
  9.5729332e-04
  1.4946832e-03
  1.2201113e-03
  6.4071862e-04
  5.4387101e-03
 -4.7151424e-04
  7.2679610e-04
 -7.4498868e-04
  6.5217535e-03
  2.4080928e-03
 -7.2756043e-04
 -4.6784207e-03
 -2.4213691e-03
  6.8383670e-04
  2.4570840e-05
 -3.4379037e-04
  9.2986232e-04
  1.7927486e-03
  1.4496146e-03
  1.5016890e-03
  5.5585844e-03
 -2.4732105e-03
 -6.9718495e-05
  1.3269972e-03
 -2.0069137e+00
 -9.6397161e-01
 -3.0845706e+00
  1.6438326e-01
 -5.1150167e-01
 -2.6060708e+00
  7.2752929e-01
  2.7451332e+00
  1.8463945e+00
  1.5622655e-01
  3.7973878e+00
  7.5672306e-02
 -6.4274436e-01
  1.7195390e+00
  1.7762452e-01
  1.0052644e+00
  4.5576844e-02
 -8.0126233e-02
  5.9113377e-01
  6.4183295e-01
 -8.5047311e-01
 -8.3075446e-01
  7.2870918e-02
  1.6906043e+00
  6.9506270e-01
 -8.3588332e-01
 -9.0574425e-01
 -8.9918053e-01
 -4.2596930e-01
  1.7412780e-01
 -2.6230168e+00
 -1.3312753e-01
  4.4644892e-01
 -2.1415707e-01
 -9.3617254e-01
  5.5359048e-01
 -1.7663141e-04
 -2.8333373e-03
  1.0444929e-03
  6.1833211e-03
  6.3739967e-01
  2.2843473e+00
 -2.3281641e-01
 -7.9629827e-01
 -8.4583825e-01
  5.5710617e-03
  7.1404105e-01
 -1.9046355e+00
  2.1354978e+00
  1.1937500e+00
 -7.0720576e-02
 -3.4784922e-01
 -9.5467132e-01
 -9.3077525e-02
 -1.2401184e-01
  9.0330234e-03
  9.4634946e-04
 -1.2762143e-01
  6.4558722e-04
  7.9789123e-04
 -5.3893214e-01
 -6.5681899e-01
  3.8152316e-01
 -2.7581149e-01
  9.3783833e-02
 -2.2152600e+00
 -6.0625255e-01
 -4.0719382e-02
 -1.9464397e-04
  2.2595722e-02
 -1.4551584e+00
 -9.7883224e-01
 -2.0746953e+00
  2.2960980e+00
  7.1584040e-01
  4.1797294e-04
  1.3920618e+00
 -6.0616374e-01
  2.7147821e-01
 -6.0637563e-01
  5.5481035e-01
 -2.0151311e-01
 -1.2313783e+00
 -3.4332329e-01
  3.3345197e-03
 -2.4773400e-02
 -6.2342105e-03
 -3.0308085e-02
  2.7727673e-03
 -5.5171199e-02
  7.1207500e-01
 -6.0788274e-01
 -1.6789409e+00
 -1.9600632e+00
  3.3302048e-01
 -3.2874105e+00
 -4.8237696e-01
  1.1291845e-01
  4.3900853e-01
 -8.9383608e-01
 -1.0168686e+00
 -7.7732307e-01
 -1.9367266e-02
 -1.5567598e+00
 -2.8701606e+00
 -7.9700105e-05
 -2.8222046e+00
  1.6724940e-01
  3.7797952e-01
 -3.1686240e-01
  4.4772997e-02
  9.5410383e-04
 -2.8549542e+00
 -7.1019357e-01
 -4.2981225e-01
 -3.0834132e-01
  3.5217954e-04
 -6.4392191e-01
 -9.2884491e-04
 -1.9363736e+00
 -7.4752159e-02
 -1.2180647e+00
  2.6971264e+00
  1.9196697e+00
 -3.0738139e-01
 -2.9059939e-02
 -2.7906292e-03
 -1.4138457e-03
  1.3325217e-03
  1.6687849e-03
 -1.5748702e-03
  1.3762469e+00
  2.7058277e-01
 -7.7379875e-02
 -6.2854946e-02
  6.2837009e-03
 -1.2848228e+00
 -1.2627294e+00
 -2.1826418e-01
 -6.5003946e-02
 -3.8332593e-01
 -1.5574153e-02
 -3.7388651e+00
 -1.3344438e+00
 -1.6798970e-01
 -3.9606189e-04
  5.4541219e-04
 -1.7895404e-01
 -9.9983171e-04
 -3.7121007e-03
  6.0389817e-01
 -9.4977427e-01
  1.8199718e-01
 -5.0520551e-01
  5.0588425e-02
  2.5206201e+00
  2.1275227e+00
  2.5192244e+00
  4.3540418e-01
  3.6257261e-01
  2.3637982e-01
 -1.6961548e-01
  1.9999603e+00
 -2.8316343e-01
 -6.0708016e-01
  6.8865702e-02
  1.6256644e-01
  1.5440702e+00
  2.9684978e-02
 -6.6831124e-01
  2.1879342e-01
 -4.9106312e-01
  1.6277332e+00
  1.5301272e+00
 -1.2358134e+00
  1.6556869e+00
 -1.5215530e-02
  6.0314137e-01
  6.3952452e-01
  1.3353194e-01
  6.2191352e-04
  3.8123288e-04
 -7.3292283e-03
  4.8593115e-03
  3.0655270e-03
 -1.9955176e-03
  4.9915048e-04
 -1.3774837e-03
 -9.5424178e-04
  3.8266613e-04
 -2.7104157e-03
  4.1783295e-04
  7.0439558e-04
 -9.6414602e-05
  1.5125518e-03
  2.7021541e-05
 -1.4471759e-03
  5.1583247e-03
  2.8250874e-03
  1.7556031e-03
 -1.0171749e-04
  4.5674047e-03
  3.2746170e-03
  3.4335295e-05
 -8.9516590e-04
 -6.6604960e-05
  2.1181854e-03
  1.0462283e-03
 -3.8119260e-04
  3.3781549e-04
 -1.6551839e-01
  1.5422879e+00
 -9.0320766e-01
  1.0908891e+00
 -8.4128067e-02
  3.0184886e-04
 -1.9105084e-03
 -1.1129391e-03
 -1.3548046e-02
 -8.4297225e-04
  3.5584541e-03
 -7.6338238e-01
  7.6818389e-01
  1.3687910e+00
  1.1646695e-03
 -3.1551591e-01
 -1.2367369e+00
 -1.0604519e+00
  2.0257351e+00
  2.0900807e+00
  1.0955325e+00
 -1.4028724e+00
 -1.2000974e+00
 -9.8142588e-01
  5.0776100e-01
 -1.8541304e-04
  9.2869042e-04
  2.9868543e-01
 -9.5977628e-04
 -3.5322295e-03
 -4.7711974e-01
 -5.6567895e-03
 -1.2350187e+00
  9.5376980e-01
 -2.9948807e-01
 -1.8671038e-02
 -9.9362014e-04
 -6.6371157e-04
 -7.6175295e-04
 -3.5374973e-03
  9.6019618e-03
 -2.1606898e-03
  1.5746541e-02
 -3.3386899e-04
 -4.3760082e-03
 -2.2037220e-03
  1.5528015e-03
 -7.1223266e-04
  1.5914612e-02
  2.1351601e-03
 -1.7670365e-03
 -8.7521871e-04
 -1.8413843e-03
  4.8040408e-01
  2.1596137e-02
  7.1534555e-04
 -9.7389013e-04
  1.9586030e-03
  1.2271540e-03
 -1.7506615e-03
 -1.8620566e+00
 -5.9290558e-01
 -8.0288798e-01
 -5.0197240e-02
 -7.7172232e-01
  2.9893124e-01
  1.0282271e+00
 -1.0456094e-03
  4.3867776e-01
  1.9817924e-01
 -4.5546475e-01
  6.5049309e-01
  2.3181033e-01
  4.9503264e-01
  1.0563433e+00
  2.4864587e-01
  5.9960186e-01
 -3.8156298e-01
 -3.9620657e-02
 -1.5599841e-01
  7.9140806e-01
  1.2223284e+00
  6.0515487e-01
  1.6728673e+00
  1.4910913e-01
  3.4634966e-02
  4.1824061e-02
 -1.1753542e-01
  5.8010435e-01
 -2.0998068e+00
  1.0918660e-01
 -7.6074287e-02
  1.7720373e+00
 -3.0147249e-02
 -9.9204659e-02
  9.6652633e-01
 -3.3747095e-03
  2.0304546e-02
 -1.5560271e-03
 -3.0283310e-04
 -1.2198131e-04
  4.5203799e-03
 -1.3596604e+00
 -4.8774567e-01
 -5.9156901e-01
  3.4715110e-03
  1.4352483e+00
  2.1360319e+00
  9.4008207e-02
 -5.4685399e-03
 -2.1670149e-01
 -1.6736691e+00
 -1.0975974e+00
  1.2006840e+00
 -1.6783632e-02
 -3.5999305e-04
  1.5031741e-03
  6.5959259e-03
 -2.4777516e-03
  2.0894957e-01
  1.1280409e-01
 -4.9854824e-03
  5.6952763e-01
  7.0966727e-01
  4.0820163e-02
  5.7914561e-01
 -6.3438555e-03
  3.9277412e-03
 -3.5976400e-04
  2.4021576e-04
 -1.4527194e-03
 -3.2262120e-03
  2.7206328e-04
  4.7853493e-04
  2.7260380e-03
  2.4315219e-04
 -1.3028109e+00
  1.2659521e+00
 -2.3349825e-02
  2.0512505e-03
 -2.8593648e-02
  1.1649402e-01
 -9.3273539e-03
  7.6711067e-04
  2.2209093e-02
  7.0044277e-03
 -8.7407703e-04
 -1.6988100e-03
 -2.3136653e-03
  2.9777375e-03
 -2.8408744e+00
 -1.0906686e+00
  2.7222025e+00
  6.0228944e-01
  1.5271581e+00
  5.8884925e-01
  5.8862340e-02
  9.3341645e-05
  3.0434341e-03
  4.5222407e-03
 -1.9872144e-01
 -1.0552695e+00
 -4.4648533e+00
  1.3123429e-01
 -1.4114420e+00
  2.0346415e-01
  2.2739456e+00
  8.2528716e-01
 -2.3219926e-02
  6.1602262e-04
 -6.5120637e-01
  1.8561035e-01
  1.4122957e-02
  4.6357155e-01
  1.1280968e+00
 -1.8310412e-03
 -3.8406387e-01
  2.7566587e-03
  2.9415675e-03
  1.2051789e+00
  2.0270770e+00
 -8.9474708e-01
  1.5704870e+00
  1.0357200e+00
  1.5068618e+00
  5.9058368e-01
 -6.1646676e-01
 -1.5164337e-03
 -1.1905692e-01
 -1.5837502e-03
  1.2235477e-03
  8.5129455e-02
  5.8844313e-04
 -2.2451680e+00
 -1.0683012e+00
 -1.9606611e-01
 -8.0374414e-01
 -3.2574859e-01
 -5.3914577e-02
 -6.7115963e-01
 -9.6272767e-01
  3.6776555e-01
 -1.2874721e-01
  4.1366115e-01
  3.0620855e-01
  3.1552665e-04
  8.4796632e-03
  3.2975836e-04
 -8.7415142e-04
 -1.1661055e-03
 -1.6639235e+00
  3.1067889e-02
  1.3256003e+00
  1.1292229e+00
  1.2328269e+00
  1.1474277e+00
  6.5497494e-01
  2.5848843e-02
  3.0779722e-03
 -1.3825691e-03
  3.1476322e-01
  9.4606084e-01
  2.0303218e+00
 -1.1920992e-04
 -1.6868875e+00
  1.3063498e-03
 -2.0627272e+00
  8.6124599e-01
  2.3838477e-01
  3.4549995e-03
 -4.8633936e-01
 -1.8334653e-02
 -6.2580925e-01
 -9.2275548e-01
 -1.2590752e+00
  2.8990526e-03
 -7.9052020e-03
  8.1362891e-01
 -5.8012875e-03
  1.6783509e+00
 -1.5926678e+00
  5.9541464e-01
  2.6147121e-01
 -1.3076007e+00
  2.3327751e+00
  4.6693950e+00
  3.0278580e+00
  7.8835070e-01
  2.4668833e-03
 -1.3957317e-02
  2.9181988e+00
  2.5328014e+00
 -8.6257929e-01
  1.5821056e-02
 -1.1291221e-01
  8.5355115e-01
  2.2305772e-01
 -7.5241745e-01
  8.0197316e-01
 -3.6837433e-02
 -1.0486120e+00
  6.9159073e-01
 -1.0399227e+00
 -3.2609899e-02
  1.0085454e+00
  1.8202834e+00
  2.9958495e-01
  6.0941152e-02
 -9.3608129e-01
  1.0523790e+00
  1.6337951e+00
  2.5453031e-02
 -9.9108487e-01
 -1.2619605e+00
  5.3885686e-01
 -3.1741502e+00
 -1.0140319e-01
 -1.2444172e+00
  1.2327323e-03
  4.0110001e-01
 -2.4515686e+00
 -3.4791821e-01
  7.1846373e-02
 -3.0866969e-01
 -1.0559828e-01
 -8.2825547e-01
 -4.4495112e-01
 -5.3073210e-01
  9.3244845e-01
 -2.6204720e-01
 -2.2531717e-01
 -1.9157323e-01
 -6.3019848e-01
  8.0738473e-01
  6.3659614e-01
 -2.0714104e-01
 -5.5161554e-02
  2.1434440e-01
 -6.5091543e-04
 -1.1283315e+00
  8.1194155e-03
  8.5645290e-03
  2.2137251e-02
 -3.5226224e-03
  2.0815779e-03
  7.8873103e-03
  3.2043206e-03
  6.0485955e-03
  1.0400400e-03
  1.8059956e-03
  1.8742722e-03
 -1.4685354e-03
 -1.9966383e-03
  1.7350776e-03
 -9.9329569e-04
  2.7952490e-03
 -5.4524926e-04
 -5.4009468e-04
 -2.3299051e-03
  5.8687717e-04
 -2.3087211e-02
 -4.7364290e-04
 -4.5346864e-03
 -1.5314464e-02
 -3.8207026e-04
  2.2711251e-03
 -2.4552885e-04
  3.8743229e-04
 -8.1085268e-04
  8.0665696e-04
 -1.1725897e+00
 -1.0568860e+00
  1.3512672e+00
  1.7453396e+00
 -1.7059574e+00
  1.6505876e+00
  5.4522417e-04
 -6.1196770e-04
  1.0270337e-03
 -4.5314059e-02
  2.5296187e+00
 -7.6751274e-01
 -2.0606694e-01
  6.7197573e-01
  4.4840109e-01
  3.5370132e-01
 -1.0803121e+00
 -4.8531687e-01
  1.5852946e+00
  1.3756897e+00
  6.1656094e-01
  4.0734258e-01
 -1.3987494e+00
 -3.6249301e+00
  9.5809501e-01
  5.4811034e-02
  3.1287554e-01
  3.7353161e-01
  3.3927721e-05
 -1.5459447e-04
  4.1821453e-01
  2.6835306e-03
  1.5864244e+00
  6.0415512e-04
  1.5389825e-01
  4.5944695e-04
 -2.3888219e-03
  4.2249286e-03
 -1.3963392e-04
  1.9694494e-04
 -1.0145601e-03
 -6.3074258e-04
 -1.0188151e-03
 -4.3291501e-03
  7.2023077e-03
  2.9258538e-04
 -6.5746717e-03
 -3.7622063e-05
 -3.2287817e-03
 -5.9547153e-04
  1.2733260e-03
  4.8615700e-03
 -2.2360729e-03
 -3.0155182e-01
 -4.3477663e-03
  6.5966538e-04
  2.4997040e-03
 -4.3073873e-04
  2.2430331e-03
 -6.5278856e-04
 -4.7988242e-01
 -2.5192344e-01
 -8.9602971e-01
 -1.9894471e+00
  8.0698263e-03
  8.7050990e-05
 -1.3074811e-01
 -6.0569975e-03
  7.6048251e-04
 -1.0272438e-03
 -4.8513994e-01
 -6.8557250e-01
 -1.2138344e+00
 -2.9247715e+00
 -3.4386342e+00
 -4.6601580e-04
 -4.8183292e-01
  2.6815338e-04
  8.1165612e-01
  6.8168867e-01
 -1.9849977e+00
 -1.5071608e+00
  1.6828172e+00
  4.9316659e+00
 -2.4145129e+00
  2.8170678e-03
  2.3624580e-03
  4.3292064e-03
  5.6417403e-03
  6.3051128e-01
 -1.4423004e+00
 -2.5560274e+00
  1.1669679e+00
  2.4656127e-01
 -1.7466292e+00
  3.3719685e+00
  1.0863017e+00
  2.4751593e-01
  2.7334727e-03
 -2.1152744e-01
  1.0917346e+00
 -5.3428560e-01
  1.3016360e-01
 -8.6203791e-02
  4.0248461e-02
  1.2743074e+00
  5.6411672e-02
 -9.3482220e-01
 -4.5516387e-01
  2.7569506e-01
  6.6040248e-01
  1.1503052e+00
 -1.2754475e+00
 -2.0723426e+00
  2.9780790e-02
  5.8348086e-03
  3.7726992e-01
  1.4389431e+00
 -1.2871991e-01
  3.3766544e-01
  9.6201581e-01
 -6.3980240e-01
 -1.0875356e+00
 -6.7233801e-01
 -1.0536679e+00
 -5.7327151e+00
 -1.0888828e+00
 -5.0393691e+00
 -5.2746492e-03
 -8.1308657e-01
  6.8103820e-02
  8.1236362e-01
 -1.6627661e+00
 -1.7917070e-01
 -1.0125965e+00
 -1.3095282e+00
 -8.5839218e-01
 -6.4349782e-01
 -1.7566262e-01
 -3.3739440e-02
 -2.1320629e+00
 -7.3039484e-01
 -1.8184447e-01
 -3.0071151e-01
 -1.8249354e-01
 -1.2655455e+00
  6.5009207e-01
  1.2234250e+00
  4.4239718e-03
  1.9174693e+00
  3.0812567e-01
  3.2314315e+00
 -5.9808517e-01
  2.7881822e-02
 -7.0903063e-01
 -1.8423953e+00
  2.5141382e-01
 -5.7002832e-03
  2.7199230e-01
 -5.3948179e-02
 -3.1791735e-01
  6.1389506e-01
 -3.6052930e-01
 -1.4845263e+00
 -3.6502191e-01
 -2.0468263e-02
 -8.0414020e-02
  2.7081759e+00
  1.7185684e+00
 -1.7342471e+00
 -5.9709558e-03
 -1.0575076e+00
 -6.4960217e-01
  3.5005915e-01
 -4.5980218e-01
 -1.6757580e-02
 -1.5258935e-03
 -1.7520969e-03
 -2.6976896e-02
 -2.5823054e-01
 -9.4029278e-01
 -1.8851458e+00
 -1.2525206e+00
 -4.7677344e-01
 -1.8987377e-01
  1.4133233e+00
 -4.3989825e-01
 -3.1119378e-02
  1.4053201e-02
  7.2513127e-01
 -2.5385048e-02
  3.0077511e-01
 -3.5686132e-01
 -2.9806858e-01
 -1.1662353e+00
  6.9579411e-01
 -3.6779985e-01
  7.2749317e-01
  2.8038216e-01
 -4.9693522e-01
  1.7397246e+00
 -1.1113005e-01
 -8.8640416e-01
  7.3952222e-01
  8.2803810e-01
  2.7327138e-01
 -1.8081141e-01
 -1.2426755e+00
  2.0884234e-03
  7.5588650e-01
  1.2506096e-01
  4.3408737e-01
  3.0985086e+00
 -9.3006587e-01
  1.5586691e+00
  4.7078431e-02
  1.4662633e+00
  3.2236239e-01
  6.4607090e-01
 -1.3856249e+00
  1.0126313e+00
 -1.4492021e+00
 -1.7835985e+00
 -1.2509661e+00
  2.9995892e+00
 -4.9389389e-01
  1.6052009e-01
 -8.1399101e-01
  5.1078123e-01
 -8.7342948e-01
  4.8588708e-01
 -9.2773706e-01
 -4.1877073e-01
  5.2863717e-01
 -2.2885408e-02
  1.9151111e+00
  1.4892545e+00
 -4.8239532e-01
  3.3817407e-01
  2.2965009e+00
 -5.1501352e-01
  4.1165739e-01
  1.4618185e+00
 -1.6338125e+00
  3.5789007e-01
 -3.0723448e+00
  7.3007131e-01
 -7.7620649e-01
 -1.1209550e+00
 -4.4459578e-01
  2.9095979e+00
 -2.4714874e-01
 -1.7955978e+00
 -1.4743938e+00
  3.4035389e+00
  4.3715617e-01
  4.0448940e-01
  5.0284678e-01
  1.3480407e+00
  6.6732597e-01
  1.6098000e+00
 -1.5097729e+00
  2.1499473e-01
  6.7613512e-01
  2.3914069e-01
  6.1809355e-01
  2.0804336e+00
 -2.4243243e+00
 -9.6789140e-01
  2.7477026e+00
 -3.1391793e-01
 -1.9227797e+00
  8.3350474e-01
 -2.6420414e+00
  1.0068134e+00
  2.7686350e+00
  1.2293303e-03
  1.6206225e-02
  6.7959625e-01
  3.5738077e-03
 -1.4399905e+00
 -5.7991344e-01
 -2.3828915e-01
 -7.0645410e-01
  2.4973221e-01
  2.8837931e+00
 -1.3769995e-03
  1.9097757e+00
  1.4854872e+00
  3.3483070e-01
 -2.1464886e-01
 -6.3717179e-03
  3.4240873e+00
 -5.9926622e-02
 -1.7291198e+00
 -4.6307072e-01
  7.8450656e-04
 -5.4882646e-01
  3.8840324e-03
  2.1882234e-02
  7.5944495e-01
  1.1804315e+00
 -1.1943507e+00
  1.0688719e+00
  3.3135035e+00
  4.5329520e-01
  1.6915889e-03
  2.5139540e-01
 -2.9472797e-03
  1.3942938e+00
  9.5669225e-02
 -3.2252460e+00
  1.0302575e+00
 -8.6948830e-01
  3.4628868e-01
 -1.0257825e+00
 -2.9293326e-01
 -8.7598747e-01
  1.6887821e-01
  2.9127640e-01
  5.5450612e-01
  1.5209118e+00
  2.4595514e-02
 -5.0649399e-01
  6.4823198e-01
 -5.4201812e-02
 -1.0712449e-03
 -3.2504246e-01
  5.3221122e-03
 -9.3871862e-01
  1.6819434e+00
 -2.3041606e+00
  1.5996804e+00
 -2.7800336e-01
 -1.3457894e+00
 -7.4702221e-01
  9.4213523e-04
 -4.2590481e-04
 -1.0622771e+00
 -1.0080962e+00
 -7.1502554e-01
 -1.7228750e+00
  9.2528659e-01
  1.3886081e-01
  7.2978932e-01
 -1.1188387e+00
 -1.2461069e+00
  1.2780923e+00
  1.0773468e+00
 -5.4666555e-01
 -1.1712836e+00
 -3.4753719e-01
  1.0595255e-01
  1.1944757e+00
 -9.9372007e-02
 -2.8186956e-01
 -2.8735594e-04
 -4.3239778e-01
  1.1004934e+00
  5.2590424e-01
 -1.1994664e-01
 -2.4779496e-01
 -1.1297306e+00
  5.2264470e-01
  6.5809602e-01
 -1.7335759e+00
 -1.7130613e-01
 -8.2133126e-01
 -1.3032765e+00
 -1.2646860e+00
 -4.0059367e-01
  1.1045635e+00
  4.1811353e-01
 -1.1027088e+00
  7.8486133e-01
 -1.3482258e+00
  1.0331873e+00
  1.0608547e+00
  1.3001842e+00
 -9.1344988e-01
  4.7152179e-01
 -4.5587236e-01
  1.8145861e-01
  4.6572876e-01
 -1.3077042e+00
  2.3588431e+00
 -1.6566608e-03
  1.0842552e+00
  9.1179049e-01
  2.2005042e-01
 -2.6196092e-01
  1.6610781e+00
 -1.8829137e+00
  5.3208035e-01
  2.3913515e+00
 -5.2513850e-01
 -1.4523345e+00
  2.0332344e+00
  5.2426284e-04
 -6.4342070e-01
  7.7619630e-01
 -1.1407501e-01
  7.5983250e-01
  3.0356443e-01
  6.1235732e-01
 -2.0565956e+00
  8.4991115e-01
  4.2710930e-01
 -2.6131502e-01
  5.7041508e-01
 -8.0328315e-01
  1.0910044e+00
 -1.2828658e+00
 -9.3053001e-01
  1.2767382e-01
 -1.9794399e+00
 -1.1933321e-02
 -2.4234841e+00
 -4.7257620e-01
 -1.0704864e+00
 -1.4359638e-01
 -6.5070128e-01
 -9.3688272e-02
 -5.8551347e-01
 -2.4985397e+00
  8.2047606e-01
  1.2512426e-02
 -3.4723908e-01
  7.2106528e-01
  1.5873354e-03
  3.4878233e-01
 -6.0964584e-01
 -1.9353099e+00
  3.7355539e-01
  2.1016235e+00
 -5.0268191e-01
 -7.9250926e-01
 -4.5635679e-01
  6.1020720e-01
  7.0259410e-01
  2.2548743e-01
 -2.1953966e-01
 -5.0524092e-01
  1.8753085e+00
 -8.8276803e-01
  6.8690941e-02
  1.3962154e-01
  3.9157234e-03
  2.8836550e-02
  6.4005125e-01
 -6.0174167e-01
  8.1049250e-03
 -6.3685313e-02
 -5.2763795e-04
 -9.9806515e-03
 -1.0637956e-03
 -1.1441498e-02
  1.0992710e-03
 -4.6695460e-04
 -7.9821411e-04
 -1.0746899e-03
  5.4912939e-04
 -6.9929217e-04
 -1.9638326e-03
 -5.9864378e-01
  2.4051005e-03
 -1.1165654e-03
  5.8521866e-04
 -1.1715679e-03
  3.4551814e-04
  3.4533894e-01
  2.7800961e-03
  4.6348511e-03
 -1.8728258e-03
  5.3985807e-04
 -1.1820479e-04
  1.1683890e-03
  6.2064512e-04
 -3.7999627e-05
  1.3716882e-03
  5.5467647e-01
 -1.3534721e+00
  1.3585037e+00
  2.3267268e-01
  1.4866164e-02
  5.4548244e-04
  1.6640651e-03
 -2.5941007e-04
  4.3373712e-04
  9.7249803e-04
  1.3013744e+00
 -3.7860725e-04
  9.5566109e-02
  1.2804188e-01
  6.6120893e-01
 -4.8015264e-01
  1.4668693e-01
  3.2559940e-01
 -2.7465993e-03
  6.5114385e-01
  2.1353428e-01
  6.0199754e-04
 -3.0302790e-01
  4.7786120e-01
  3.8091299e-01
  1.8155436e-01
  4.7458091e-04
  4.1000536e-03
  2.1143018e-03
  4.4953672e-04
 -7.0982665e-01
  1.8274728e+00
 -5.3518083e-02
  3.5320899e+00
 -1.0970638e+00
 -1.0334300e+00
  7.3592481e-04
  2.1362598e-03
 -6.8982737e-03
 -1.1723593e+00
 -3.2606700e-01
 -7.6706172e-03
 -1.2718904e-01
  8.1049585e-01
 -1.1262786e-01
  2.9076490e-01
  2.9094148e-01
  3.0241677e-01
 -3.8832009e-01
  2.4831192e-01
 -1.5701296e+00
 -1.3520224e+00
 -9.6934134e-01
  9.4937578e-02
  1.3623573e+00
 -9.9980587e-01
 -3.5541841e-01
 -4.3651921e-01
 -1.5215150e-03
 -4.3512536e-03
  3.5297516e-01
 -1.8147556e+00
  1.5837152e+00
  9.2788166e-01
 -2.0702412e+00
  1.8835136e+00
  4.4472038e-04
 -8.9013284e-01
  1.1745442e+00
 -2.7143016e-01
  1.1663792e+00
  1.7461590e+00
 -1.4783524e-01
 -6.7804122e-01
 -6.5908271e-01
 -2.4108453e-01
  3.4736872e-01
  3.1681582e-01
 -2.0947538e-01
 -4.8511675e-01
 -1.8436553e-02
 -1.1667384e+00
 -6.4610672e-01
  5.1547211e-01
  2.8012601e-01
 -1.7406460e-02
  3.3235422e-03
 -2.8414568e-01
 -5.5134016e-01
 -9.8978949e-01
  3.2148513e-01
 -9.8508336e-03
 -1.0741167e+00
  2.4514911e+00
 -9.1903716e-01
  9.9267159e-04
 -5.6736509e-04
  1.6031194e-02
 -1.5357853e-03
 -3.0369643e-04
  1.1780040e-01
 -1.3030100e-01
  8.9691430e-02
  3.8573253e-03
 -2.6685435e-02
  1.4884304e+00
  8.9937097e-01
  1.6094079e+00
 -4.5632347e-03
  1.6860520e+00
  3.2575649e-01
 -1.8369757e-03
 -1.1514168e+00
 -7.0171279e-01
 -2.8400295e-04
  7.0313418e-01
 -1.7765400e-03
  2.6456278e-04
  2.5574127e-03
 -1.6109869e-04
 -1.8905413e-01
 -4.0708208e-01
 -1.5436610e+00
 -7.8005427e-01
 -1.4481865e+00
 -2.4232391e-04
  4.6458049e-04
  5.1307469e-04
  2.0262641e-01
 -6.5089052e-04
  5.5669242e-01
  1.2703700e-03
 -2.4702676e-02
 -4.3081182e-01
  8.9286870e-01
  6.5204823e-01
 -2.3578331e+00
 -4.2736419e-02
 -7.7383274e-01
  2.0345557e-01
 -1.9319348e-01
 -7.7434641e-01
 -2.8395915e-01
 -1.2143754e-02
 -2.1060032e-03
  2.0885991e-01
  5.2566039e-03
  1.6099188e-03
  1.4326622e-04
  4.8378795e-01
 -9.8111922e-01
 -1.3964964e-02
  2.5627166e-01
  2.4402723e+00
  2.7094489e-01
  4.4058729e-04
  3.1056281e-04
 -4.0879520e-04
  5.5136783e-03
 -1.1251667e-03
  1.4459159e-03
  5.1184385e-03
  2.2295772e-03
 -9.2545033e-02
  3.4992874e-03
  2.4086335e-01
 -8.1727263e-03
 -6.5140732e-02
 -8.9728260e-01
 -3.5478487e-03
  1.3511724e+00
  1.2981319e-01
  2.0387421e+00
  1.5199992e-01
  4.4884473e-01
  7.9302037e-05
 -2.6297834e-04
 -1.4284298e-04
 -8.0444082e-04
  5.9935637e-06
  2.3152959e-02
  1.7427107e+00
 -4.1026831e-02
  2.0682526e+00
 -2.7725288e-01
  1.8428298e-02
 -3.8888268e-03
 -1.4455261e-03
  2.6095507e-03
 -6.8741155e-01
 -2.2703358e-03
 -9.0180516e-02
 -1.2044670e-01
  1.9121927e-01
 -3.0323088e-01
  2.3095804e-01
 -8.7918639e-01
  1.3715646e-01
  2.5161368e-01
 -2.1079698e+00
  2.9513849e-02
 -3.3976534e-01
  6.6581017e-01
 -9.5163494e-01
 -2.6504359e+00
  9.8668294e-05
  2.1888722e-04
 -2.6233033e-03
 -1.6115243e-03
  1.6287841e-04
  5.3623137e+00
  1.7837246e-01
 -6.7977798e-01
 -5.8322687e-02
 -3.2371943e+00
  9.3159697e-04
  1.8595832e-03
  7.9501432e-01
  1.1654525e+00
  3.9540502e-01
 -3.4573159e-01
 -1.3997861e-03
  9.5941877e-04
  6.3220697e-04
 -9.5362172e-02
 -9.4356883e-01
  1.9911276e-02
 -3.4209981e+00
 -2.7250750e+00
 -9.9247100e-04
  8.4043783e-01
 -4.1887686e-03
 -4.4874436e-01
 -1.1670783e+00
 -4.4701189e-01
 -2.8729711e-03
 -5.1053608e-04
  2.2174928e-03
  9.7824330e-04
 -9.6179178e-04
 -6.2838309e-02
 -1.2249269e+00
  3.1441343e-01
  3.7999766e+00
  3.8362648e-02
 -1.5735658e+00
 -4.3884829e-01
 -7.8991902e-01
  2.7500568e-03
 -2.1592409e-03
 -1.2908330e+00
  2.1688069e-01
 -2.5654209e+00
 -1.2830546e-01
  6.6929512e-02
 -5.9917259e-01
 -1.3900018e-01
  2.5637722e+00
  7.2997861e-02
  7.8998572e-01
 -6.9883049e-01
  2.4316902e+00
 -8.1397885e-01
  2.6234677e+00
  2.7502096e-01
 -2.1130061e-03
  8.5233670e-04
 -1.7730490e-04
  5.9999822e-04
  6.7677052e-04
 -6.9041424e-03
  1.1578465e-01
  3.2749574e-03
  2.2711861e-04
  1.7108429e-03
  1.3359042e-03
 -9.5820340e-04
 -1.9554596e-03
  4.3932591e-03
 -2.3008843e-03
 -1.6539803e-03
 -1.3536150e-03
 -5.1007206e-03
 -4.7250828e-04
  3.3108837e-03
 -1.5620997e-03
 -1.0189262e-03
  1.6770398e-04
  1.2804371e-03
  7.2486146e-04
 -5.2420807e-04
  1.1444509e-03
 -1.3520308e-03
  3.5464778e-04
 -1.7523718e-03
 -3.7629434e-04
 -2.0422530e-03
 -9.7309786e-04
  2.9116822e-03
 -1.4223508e-03
 -1.7380389e+00
  2.1507835e+00
 -2.3777127e+00
 -5.1541698e-01
  1.0589098e+00
 -7.4540917e-03
  4.6450729e-04
 -3.8877540e-04
  1.4216616e-03
 -1.8272295e-03
 -6.9680892e-02
 -4.2799031e-03
 -2.7426052e+00
 -3.9999686e-02
  5.0334352e-01
 -2.4048429e+00
  6.0274631e-01
  2.9715555e+00
  1.8632333e-01
  1.2215762e+00
 -3.6562376e+00
 -1.6911244e+00
  1.4631704e+00
 -9.0706092e-04
 -1.1754837e+00
  6.9476879e-01
 -8.3438453e-04
  5.6463176e-01
  1.6131356e-01
  7.4433553e-01
  7.3677838e-01
 -2.6927420e-01
 -5.5658484e-01
 -1.8042482e-02
 -2.4696426e+00
 -3.0153322e+00
 -7.9040974e-02
 -1.7196158e+00
 -1.2854168e-01
 -5.0958705e-01
 -2.3104277e-01
 -6.7817274e-04
  1.7556721e+00
 -1.9754516e+00
 -5.9608988e-02
 -6.2297624e-01
 -2.1658614e+00
  6.1477065e-01
  7.8506184e-01
 -5.2633733e-01
 -4.3650725e-01
 -2.6253995e-01
 -1.0037123e+00
  7.7276683e-01
  1.2650243e+00
 -1.2282897e+00
  6.9221392e-02
 -1.6365743e+00
 -7.8653189e-04
  1.9084259e+00
  1.4924176e+00
 -1.0854633e+00
 -1.1689038e+00
  1.2185314e+00
  7.4118543e-01
  8.5804537e-02
  1.7845423e-03
 -1.2515222e-03
  1.0827570e-01
  8.2114274e-03
 -1.2409916e+00
 -6.5389192e-01
 -1.3082409e+00
 -1.0231743e+00
 -3.4893018e-01
  1.5079057e+00
  2.6026226e-03
  1.5650588e+00
  7.7463377e-01
  8.3711731e-01
  1.3257040e+00
  2.9326957e-01
 -1.0986742e+00
  1.1601443e+00
 -5.3973147e-03
 -1.0131305e+00
  6.5294700e-04
 -2.2687468e-01
  7.3867326e-04
 -5.8237015e-04
  4.3344178e+00
 -5.0394861e-03
 -3.7203509e-01
 -3.7481135e-01
 -1.0694684e-01
 -1.5499209e-04
 -5.6333008e-04
 -4.9680147e-01
 -4.7160298e-01
  1.1907404e-03
  9.9625397e-01
  1.2188814e+00
  3.4336627e-01
 -1.6483113e+00
  2.0149734e+00
  1.6187552e-05
 -8.8290414e-03
  9.0788774e-02
  1.5304080e+00
 -1.1012503e+00
 -3.6690390e-01
  1.4837788e-01
  2.1419818e-04
  6.2895822e-05
  7.2804624e-01
  6.3870014e-03
 -9.8993175e-04
 -2.8964534e-04
  2.6360489e-02
  1.3158891e-03
 -6.0565555e-01
  1.3490820e-01
 -6.4956987e-01
  1.5129538e+00
  1.5649804e+00
 -2.6497838e+00
  3.5346346e-04
  9.4666165e-01
  8.1892878e-02
  1.0736604e+00
 -8.0491179e-01
  7.6443094e-01
 -1.1034114e+00
 -1.0407192e-01
 -7.5259954e-01
  7.9460666e-02
  1.2553566e+00
 -1.3413841e+00
  3.4324050e-01
 -1.0637431e+00
 -1.6087407e+00
 -1.9316267e+00
  1.1010458e+00
  1.7117565e+00
 -5.8516327e-02
  2.4753769e-01
 -2.4682190e-04
 -5.5836001e-04
  7.3092669e-04
 -5.9795588e-01
 -1.6444191e+00
 -1.0675157e-03
  6.6982073e-01
 -4.0821446e-04
  1.3227677e+00
  4.0751722e-04
 -9.3503033e-05
  4.7410381e-04
 -1.6985177e-03
 -2.0708312e-01
 -1.5479860e+00
  2.8326616e-03
 -5.4678845e-01
  8.9415909e-05
 -7.6369768e-01
 -1.7176973e+00
 -1.8349284e-01
  9.9469668e-01
 -3.0264730e+00
  6.4112282e-01
 -1.5895463e+00
 -1.5013965e-03
  8.9003932e-01
  1.4587350e+00
 -2.2823514e-01
  8.6339947e-04
 -4.8972020e-04
  1.7365034e-03
 -2.2583283e-04
 -5.6354933e-05
 -8.0319798e-01
 -4.9949053e-01
  1.6983917e-01
 -2.4871693e+00
 -2.7804258e-01
  3.1385490e-01
  5.9980358e-04
 -3.7601447e-01
 -5.1570886e-01
  1.9392986e+00
  1.1110493e+00
 -7.3178935e-01
  2.4830866e+00
  1.0818713e+00
  1.5839920e+00
 -6.3068390e-01
 -2.0718751e+00
  1.2408726e+00
  5.2227521e-01
  2.4447054e-01
 -1.1951561e+00
  1.6053459e-01
 -1.7764308e+00
  3.1089958e-02
 -2.5639924e-01
  3.7917599e-01
  1.1721742e-01
 -8.8385332e-01
 -7.7721983e-02
 -1.0066999e-01
  6.8795362e+00
 -6.4163798e-01
 -1.6514548e-03
 -4.8704559e-04
 -8.2547739e-03
  2.1905621e-04
 -5.6195835e-04
 -8.4051037e-01
 -6.8446308e-01
 -1.9049868e-03
  1.1359624e+00
  5.6480139e-01
 -4.2410898e-06
 -3.0150743e+00
  1.2490183e+00
  2.8860706e-01
 -3.0193052e-03
  2.2827263e+00
  1.7047890e-01
 -1.8745642e-03
  1.1476198e-03
  4.4587098e-02
  1.4776445e-03
  6.2782853e-04
  1.2449571e-01
 -1.7503544e-04
  6.1217276e-04
  2.1210227e-04
 -2.7640272e-04
 -2.9774175e-03
 -1.2770402e+00
 -2.9122305e-01
 -1.5612042e-02
  2.0887480e+00
 -1.6328277e-01
  7.6672114e-02
 -2.6303134e-04
  2.6043969e-01
 -5.4260078e-03
  3.0208798e-02
  6.4937431e-01
 -2.8355133e-03
 -1.4813110e-02
 -7.3654442e-06
  7.2417250e-03
  1.1081876e+00
 -1.1564995e+00
  2.0391725e-03
  3.6270199e+00
  3.2046635e-02
  2.0825310e-01
  1.0828623e-04
  1.9765793e+00
  7.5272087e-04
  1.8587613e-01
 -9.4245806e-05
  5.8660520e-05
 -6.4181857e-04
 -6.3610624e-04
  2.7742044e-03
 -2.6067359e+00
  2.8274241e-01
  1.0398188e+00
  4.7302386e-01
  1.8957250e-01
  1.0229662e-03
  5.5201886e-06
  4.7725007e-01
  1.8415819e+00
  1.1246118e-03
  1.3114037e-03
 -1.7911471e-01
  1.0537704e-03
 -1.5274672e-01
 -2.1798803e-01
 -5.9151977e-01
  2.7201669e+00
  8.0436134e-01
  1.7982632e-01
  4.8326677e-01
  1.9076862e+00
 -1.4423267e-02
  2.5511536e-01
 -2.2162678e+00
 -2.1115379e-01
 -3.6043487e-04
 -4.5049336e-04
  3.7119307e-03
 -6.3773438e-02
 -9.5204252e-01
 -6.1378205e-01
  1.3796180e+00
 -6.4047384e-01
 -9.7251064e-01
 -2.2767189e+00
  2.6093096e-01
  2.1853159e-01
  7.5830054e-01
 -5.9256743e-04
  2.9900658e+00
  8.8615394e-01
  5.7203021e-02
 -5.6333190e-01
 -3.0138509e-03
 -4.0083352e-01
  7.1295373e-02
  6.0409760e-01
 -1.9100344e+00
  1.6356779e+00
 -2.1229877e+00
 -2.1490326e+00
  3.9650777e-01
 -2.8393788e+00
 -1.9739014e+00
  5.2516437e-01
 -1.6908991e-01
  3.2638095e-03
  4.5886743e-03
  1.1091530e-02
  7.9141237e-04
 -3.9671674e-02
  1.2087611e+00
 -5.2162355e-01
  6.0413593e-01
  7.1117818e-02
 -3.2821918e-04
  1.1624660e-03
 -5.1615405e-04
  7.2265297e-01
 -4.7503941e-04
 -1.1872146e-01
 -1.2833611e-03
 -1.1812684e-02
  1.0232329e-03
 -5.9681688e-03
 -1.7776579e-01
  6.1807060e-04
  2.0466872e-01
  6.3357380e-04
  2.1148613e-03
  5.1874524e-01
  1.1347226e-03
 -5.9810858e-02
  4.0503926e-04
 -2.1106999e-03
  5.1889714e-04
 -1.1576073e-03
 -3.5669506e-03
 -1.8599147e-03
  2.4495632e-03
  6.1405270e-04
 -5.4282532e-04
 -3.2616398e-04
 -1.0531202e-03
  1.4590188e-04
  1.4590486e-03
  3.2841056e-03
  1.5603874e-03
 -1.7732678e-03
 -5.3567998e-04
  3.3211545e-04
 -1.7259056e-03
  4.1502845e-03
 -9.1638288e-04
  6.5301098e-03
 -7.4123422e-04
 -2.0813774e-05
  2.5122652e-05
 -8.6381719e-05
  1.2976415e-03
 -3.9113683e-04
  6.6511799e-04
 -4.5174480e-04
  2.2127606e-05
  1.8730904e-03
 -4.6520820e-04
  4.8554677e-05
  1.1758902e-03
 -9.3414262e-04
  1.1219037e-03
 -8.1920475e-01
  8.3795834e-01
  1.6185305e+00
  3.8259801e-02
 -1.4069957e+00
  1.1360426e+00
 -8.4891051e-01
  1.8033692e-01
 -4.5379236e-01
  7.9232937e-01
  8.7334776e-01
 -1.1018406e+00
 -2.1691310e+00
 -9.0060353e-01
  2.5548232e-01
 -1.6188250e+00
  1.7001522e+00
  6.0696095e-01
 -1.6123843e-01
  5.9481907e-01
 -3.9771679e-01
 -2.1747375e+00
 -1.0470045e+00
 -4.0816724e-01
 -5.6430262e-01
  3.0320212e-01
  2.3684150e-01
 -7.5919873e-01
 -6.6450399e-01
  1.9989752e+00
  7.6402789e-01
  2.0610807e+00
  2.7821295e+00
 -1.8287731e+00
 -3.3901019e+00
  1.5973907e+00
 -2.8626069e-01
  4.9695739e-01
 -1.5847592e+00
  3.0544200e+00
 -3.7742618e-01
 -2.5073111e+00
 -6.7367887e-01
 -9.8890668e-01
  3.6912373e-01
 -8.6854845e-01
  4.7550422e-01
 -8.4844077e-01
 -1.6561235e+00
  6.5069711e-01
 -1.3356078e+00
 -3.0825815e+00
 -3.6721170e-01
  1.4812706e+00
 -2.0895886e+00
 -4.5789006e-01
  1.3119262e+00
  9.3222439e-01
 -5.2259278e-01
  7.0579726e-01
 -1.8494473e+01
  4.1680627e-02
 -4.0248898e-01
  2.5421205e+00
  1.5502791e+00
 -1.1116340e+00
 -1.1561652e-01
  1.3596193e+00
  1.2199554e+00
  1.8252006e+00
  1.0214708e+00
 -1.3021904e+00
  7.0378870e-01
 -1.2764266e-01
 -2.6777995e+00
  4.3364654e+00
  3.9076183e+00
 -3.0927306e-01
 -8.8606656e-01
 -7.4971730e-01
  2.0620463e+00
 -1.3554133e+00
 -3.6989283e-02
  2.2839041e+00
  2.5727031e+00
 -1.0383748e+00
  7.3259020e-01
  4.9649292e-01
 -4.1203707e-01
 -1.8885936e+00
 -1.8888403e+00
 -4.7015792e-01
  2.3854153e+00
 -8.2374138e-01
  1.6949997e+00
 -1.8257480e+00
  1.5664076e+00
 -4.5930618e-01
  2.2400765e+00
  1.3560832e+00
  1.8186166e+00
 -2.1218395e+00
 -2.3712027e+00
 -9.1541076e-01
 -5.4859501e-01
  1.5678749e+00
 -2.1245334e+00
  9.3931711e-01
  4.7951469e-01
  7.8232223e-01
 -1.6957486e+00
 -1.6916720e+00
 -1.4121940e+00
 -1.4018748e+00
 -3.8758612e+00
 -1.5073079e+00
 -8.5956138e-01
 -8.8386130e-01
 -3.3413109e-01
  1.5310010e+00
  9.9176025e-01
 -3.6334807e-01
  2.3495126e+00
  2.6659672e+00
  5.2221102e-01
 -5.4752940e-01
 -2.6154318e+00
 -1.1977128e+00
 -1.7311774e+00
 -2.0411890e+00
 -1.0394741e+00
 -7.8390312e-01
  1.0229992e+00
 -4.1115761e-01
 -1.2260158e+00
  1.5915101e+00
 -5.1926297e-01
 -6.3604847e-02
 -3.8702421e-02
  6.5614551e-01
  8.8423109e-01
  8.0392383e-02
 -6.0836715e-01
  3.5766843e-01
 -2.4513144e+00
 -1.5088023e+00
 -3.1946981e+00
  2.1915244e-01
  1.8908608e-01
  8.5989273e-01
  1.9581989e+00
 -8.0103505e-01
  7.8145675e-02
  3.5159236e-01
 -2.1457701e+00
 -1.4162384e+00
 -2.9161379e+00
 -3.1406486e-01
 -4.9382535e-01
 -1.0549682e+00
  7.3759422e-02
 -8.2265919e-01
  9.8815471e-01
 -1.4841181e+00
  1.6556035e+00
 -1.6806909e+00
 -3.9699405e-01
  2.5238726e+00
 -4.8306623e-01
  1.6875733e+00
 -2.7308512e+00
 -7.1220392e-01
 -6.2517846e-01
  4.3734324e-01
 -4.7143120e-01
 -1.7690657e-01
  5.6809325e-02
 -1.0433232e+00
  2.1635637e+00
  2.0821834e+00
  1.5355327e+00
  1.7637368e+00
 -1.7201638e+00
 -2.5079875e+00
 -2.1288214e+00
  1.8150513e+00
  3.3131365e-03
  1.6710040e-01
 -1.0434230e-01
  1.5987685e-01
 -1.0685700e-01
 -2.0351534e+00
  6.3278919e-01
 -1.6452138e+00
 -7.6288134e-01
 -1.7836061e+00
  2.6590139e-01
 -3.1901968e-01
  4.0347925e-01
  2.9968971e-01
  3.1692421e-01
  9.9462014e-01
 -7.7753109e-01
 -1.4482976e+00
 -1.0152726e+00
 -1.3421777e-01
 -3.3326871e+00
  5.8823192e-01
 -1.4184640e-01
 -2.8485981e-01
  9.1527522e-02
  2.8929031e-01
 -1.9037136e+00
  4.8758298e-01
 -8.3017713e-01
  1.2374463e-01
 -3.0743575e-01
 -6.0494551e-03
 -7.8031993e-01
  7.7284664e-01
 -3.0633976e+00
  1.0227609e-01
  2.2845042e+00
 -2.0735276e+00
 -1.8740586e+00
 -1.2253164e-01
 -6.3034761e-01
 -8.2416636e-01
  9.8284268e-01
 -1.5243754e+00
 -1.3811445e+00
 -2.6012375e+00
 -1.5153283e+00
 -1.4696395e-01
  2.8797452e+00
  1.6084827e-03
 -3.8575846e-01
  1.9211361e+00
 -7.8510445e-01
 -1.5193671e-01
 -2.4102039e+00
 -1.8686671e+00
 -9.0941763e-01
  2.2519299e-01
 -1.0491904e+00
 -9.1246474e-01
 -1.2661235e+00
 -6.6436124e-01
 -2.4079962e+00
  2.9253397e+00
  1.4961056e+00
 -2.6669997e-01
  4.7562537e+00
  1.0640689e+00
  3.6982754e-01
 -5.3619260e-01
 -8.3813238e-01
 -1.3744090e+00
 -1.2764980e+00
  1.8921795e-01
 -2.4680188e+00
 -1.2605371e+00
 -6.5510756e-01
  1.1229646e+00
  7.7234572e-01
  1.4395842e-01
  3.0499074e-01
 -1.3582212e-01
  1.1086462e+00
  6.2684959e-01
  2.5808284e-01
 -6.2343317e-01
 -1.4205446e+00
 -3.3921719e-02
 -5.3603554e-01
 -1.1246074e+00
 -1.9300973e+00
 -5.0778568e-01
  2.4436808e-01
 -1.0109756e+00
  1.7642872e+00
 -4.4066079e-02
  7.1483113e-02
  3.4361669e-01
  2.6679111e+00
  1.3847827e+00
 -3.1062322e+00
  1.4322750e-01
 -4.9093935e-01
  5.2902794e-01
  2.7134705e-01
  1.2637657e+00
 -8.5721523e-01
 -1.7523870e+00
  1.8845656e+00
  9.1646922e-01
  6.9720078e-01
 -5.6727505e-01
  7.3897851e-01
 -7.9760504e-01
 -7.2048360e-01
  4.5641676e-01
 -6.8471724e-01
  1.1150450e+00
  2.0313056e-01
 -2.4414857e-01
  3.6765048e-01
  8.0964708e-01
 -4.3312600e-01
 -3.7151197e-01
  1.0737555e+00
  2.1642491e-01
 -6.1450478e-02
 -3.1823766e-01
  1.8424493e-01
  1.2660067e-01
 -2.1073012e-02
 -3.2873318e-01
  1.3022717e+00
  1.2026366e+00
  1.0269095e+00
 -1.7672166e-01
 -2.8324482e+00
 -5.3700721e-01
 -4.1046381e-01
  3.5517998e-02
 -2.0863506e-01
  1.1685725e+00
  9.0313125e-01
  1.2596471e+00
  2.5159035e+00
 -3.3898540e-02
 -4.9061194e-01
  6.7186856e-01
  1.6578823e-01
 -5.2024674e-01
 -1.0677449e+00
 -1.0468257e-01
 -2.2596699e-01
  7.3610765e-01
  1.7717388e+00
 -1.1477090e-01
  7.6909578e-01
  6.8171179e-01
  1.0938476e+00
 -1.7214009e-01
  3.8464212e-01
  5.1038325e-01
  1.3657246e+00
  3.7515625e-01
  2.2836006e-01
 -5.0391245e-01
  5.8562666e-01
  1.3278924e+00
 -2.4769752e-01
  2.6573190e-01
 -5.6032771e-01
 -4.1294910e-02
  1.3504642e+00
 -4.8539065e-02
 -1.9457023e+00
  5.0737685e-01
 -1.7161230e+00
 -1.3105661e+00
 -2.1004844e+00
 -8.9416671e-01
 -1.1282051e+00
 -1.6998185e+00
 -1.9782348e+00
 -9.7170490e-01
 -1.1925334e+00
  3.4270760e-01
 -6.6768187e-01
 -5.6258913e-02
  3.0339235e-01
  5.2383304e-01
  3.9984995e-01
 -8.7002796e-01
 -4.9937361e-01
 -9.3518347e-01
 -2.7857971e-01
 -5.1220883e-02
  1.0443397e+00
 -1.9368276e-01
  1.1570565e-02
 -2.4149716e+00
 -1.4462317e+00
  6.4934838e-01
 -8.1842130e-01
  3.1073722e-01
  6.6119260e-01
  4.6631685e-01
  2.5776696e-01
  1.9935932e-02
 -1.1247433e+00
 -9.1250785e-02
  1.3348660e+00
  1.6174026e+00
  1.9654149e-01
  3.7380096e-01
  1.3424838e+00
  6.4851928e-01
 -1.6452227e+00
  1.9411206e-01
  2.5348508e+00
  1.9162986e-01
 -6.7825609e-01
 -3.4993610e-01
 -1.2464333e+00
 -6.7091221e-01
 -3.2108343e-01
  9.5973122e-01
  1.3285109e+00
 -1.5702624e+00
 -1.2544324e+00
 -8.4570807e-01
  4.2956826e-01
  2.2731623e-01
  8.2231957e-01
 -6.1239409e-01
 -3.2611910e-02
  1.1770596e-02
  1.1770596e-02
  1.1770596e-02
  1.1770596e-02
  1.1770596e-02
  1.5871381e-02
  1.5871381e-02
  1.5871381e-02
  1.5871381e-02
  1.5871381e-02
  3.1467441e-02
  3.1467441e-02
  3.1467441e-02
  3.1467441e-02
  3.1467441e-02
  2.6046254e-02
  2.6046254e-02
  2.6046254e-02
  2.6046254e-02
  2.6046254e-02
  1.0847920e-02
  1.0847920e-02
  1.0847920e-02
  1.0847920e-02
  1.0847920e-02
  1.6048267e-02
  1.6048267e-02
  1.6048267e-02
  1.6048267e-02
  1.6048267e-02
