nep4 2 Cu Sn 
cutoff 5 5 108 108
n_max 4 4
basis_size 8 8
l_max 4 2 0
ANN 30 0
 -1.1836859e+00
  3.7694147e+00
 -5.7901311e-01
  1.1290176e-01
 -3.0321712e-02
 -7.7606124e-01
 -8.4113883e-05
 -3.4015749e-02
  8.6502510e-04
  1.8935292e-03
 -1.9209819e+00
 -2.6766264e+00
 -8.7813018e-03
 -1.0396852e+00
 -2.5587433e-04
  2.5569385e-01
  1.2123529e+00
 -5.2688932e-01
  5.8916414e-01
  2.0987723e+00
 -5.7224074e-04
 -3.3561897e+00
 -8.7223083e-01
  2.8994940e-02
  6.1328572e-01
 -5.3936606e-03
 -1.3744357e-03
 -5.1056375e-03
  2.0520447e-04
 -2.6180627e-04
  1.9675858e-01
 -2.7384732e-02
  2.0415370e-01
  1.1298083e+00
 -1.9878738e-04
  1.3984287e-01
 -1.8567232e-02
  6.8642073e-03
  1.6097880e-04
 -1.1813345e-03
  7.5270014e-04
 -2.6210475e-01
 -3.0254642e-02
 -6.5108500e-02
 -3.2506540e-04
 -3.9260070e-05
  1.4286369e+00
  1.7180465e+00
 -9.0558666e-01
 -2.0180248e-02
 -7.9055643e-03
  5.1136692e-03
 -1.5430295e-01
  7.7899843e-01
 -3.8760658e-02
 -4.1791532e-04
  1.2367744e-03
  4.8483361e-04
  2.9207173e-05
  3.9224168e-03
 -8.2871437e-01
 -3.5709488e+00
  4.6619198e-01
  2.5728714e+00
 -1.5396315e+00
  1.9363413e-02
  1.1189458e+00
 -1.7324512e-04
 -1.0877780e-03
 -9.1150170e-05
  3.5697547e-01
 -1.0193139e-01
 -1.3002036e-02
 -1.7984014e-02
  6.1303461e-01
  1.0274007e+00
  2.2867778e-01
 -1.1161143e+00
  5.8849150e-01
  2.1164519e-01
  1.6334208e-03
 -4.1925102e-02
 -1.6276305e+00
  1.7708631e-01
 -9.7434592e-01
 -1.4115691e-04
  5.1454926e-01
 -1.7784482e-02
  5.3557144e-03
 -9.5699332e-04
  4.3538514e-01
  5.9607708e-01
 -5.2066666e-01
  2.1565654e+00
 -2.0441918e+00
 -3.5240009e-01
  1.0597044e+00
 -1.1625205e-01
 -3.4137469e-04
  1.8837753e-01
  1.3694613e-03
 -3.2548001e-01
 -7.0623547e-01
 -9.0635979e-01
 -4.0743157e-01
  1.3684585e+00
 -7.8365642e-01
  1.3953078e-01
 -2.8200781e-01
  5.5476144e-04
 -1.8722795e-02
  9.6593314e-01
 -6.3897461e-01
  8.2326233e-01
 -3.1600162e-01
  8.3488709e-01
  1.2062216e+00
  2.6488317e-02
 -5.0826955e-05
  6.3707453e-01
  6.8219602e-03
  5.5501680e-04
  8.5342576e-04
 -2.5405327e-04
 -1.1056787e-03
  1.0310991e-04
 -1.5029652e-04
 -6.5256661e-04
  6.1723916e-04
  8.1814913e-04
 -4.8575079e-04
 -1.1522948e-03
 -3.8405484e-05
  2.0099808e-03
  8.4072759e-05
  2.2960389e-03
  1.6964987e-03
  2.2059658e-03
  7.5168780e-04
  2.4261446e-04
  6.0486605e-06
  6.2497333e-05
  7.8731502e-04
  3.7336808e-03
 -3.1661111e-04
 -2.6977609e-04
  6.7028141e-04
 -3.5310669e-03
  3.2162236e-04
  9.5676107e-04
 -2.0755284e+00
 -9.0461814e-01
 -3.0454061e+00
  1.9173147e-01
 -5.1150376e-01
 -2.0077364e+00
  6.3088191e-01
  2.9706042e+00
  1.8450513e+00
 -1.4577915e-01
  3.7244527e+00
  1.8506801e-01
 -6.3745338e-01
  1.7460854e+00
  1.7548430e-01
  8.5907942e-01
  1.1661617e-01
 -6.9837086e-02
  5.1651847e-01
  5.8301425e-01
 -1.0637859e+00
 -6.8393493e-01
  6.9129795e-02
  1.6905128e+00
  6.6186011e-01
 -1.1512411e+00
 -9.0875161e-01
 -7.0042151e-01
 -1.3469531e-01
  1.3571925e-01
 -2.6018260e+00
 -1.3363893e-01
  4.3621957e-01
 -2.2761317e-01
 -9.0426415e-01
  4.3597496e-01
 -6.4640032e-04
 -7.4522500e-04
 -1.3156807e-03
 -1.4052810e-03
  6.4162475e-01
  2.1242208e+00
 -2.2992639e-01
 -4.9372762e-01
 -8.5798991e-01
  1.5486516e-03
  7.1352738e-01
 -1.9840387e+00
  2.1319561e+00
  1.0472742e+00
 -1.0266320e-01
 -3.4947219e-01
 -9.5397240e-01
 -1.5835842e-02
 -1.2444635e-01
  1.0086026e-04
 -4.6693519e-04
 -2.2970581e-04
  1.7989021e-03
  1.2754461e-04
 -5.3279835e-01
 -6.5683442e-01
  3.7238163e-01
 -2.6382491e-01
  8.9552730e-02
 -2.1502483e+00
 -1.8856728e-01
 -9.2066489e-02
  3.0496853e-04
  6.8431549e-02
 -1.1612943e+00
 -9.7914869e-01
 -2.0601668e+00
  2.2969334e+00
  5.6842941e-01
 -1.9220250e-03
  1.3911541e+00
 -6.0343373e-01
  3.0903515e-01
 -5.9559369e-01
  3.7829006e-01
 -2.0523481e-01
 -1.2458473e+00
 -3.0543637e-01
  5.5097197e-03
 -2.6544177e-03
  7.7614066e-05
 -4.5342684e-02
  2.0446435e-03
 -1.6651163e-01
  7.1566451e-01
 -5.5133766e-01
 -1.6777772e+00
 -1.9409724e+00
  3.3321717e-01
 -2.8816209e+00
 -4.9595869e-01
  1.1193606e-01
  4.6631268e-01
 -8.8231015e-01
 -9.4906825e-01
 -7.7788872e-01
 -1.4376301e-02
 -1.5390329e+00
 -2.8346548e+00
 -1.4482870e-03
 -2.9354110e+00
  1.6675724e-01
  3.7864760e-01
 -2.8535235e-01
  9.4158754e-02
  9.2273363e-04
 -2.6460047e+00
 -7.0380640e-01
 -5.3085905e-01
 -3.4490222e-01
  3.4730264e-04
 -6.4686930e-01
 -1.2817433e-03
 -1.7418102e+00
 -7.0745789e-02
 -1.2163130e+00
  2.7581434e+00
  1.9684182e+00
 -2.9540706e-01
 -3.2451185e-03
 -1.0050405e-02
  7.6810963e-04
  7.4355907e-05
 -1.0662829e-03
  1.3973789e-04
  1.1566554e+00
  1.8389826e-01
 -2.4178964e-01
 -6.3185900e-02
 -1.2969986e-03
 -1.2159408e+00
 -1.2624627e+00
 -1.6783504e-01
 -8.0422223e-02
  1.4766608e-04
 -2.2471031e-02
 -3.7311187e+00
 -1.3837241e+00
 -1.7087424e-01
 -3.4232994e-03
 -4.4265165e-04
 -3.0604848e-01
 -1.9152358e-04
 -3.3366024e-02
  5.8543867e-01
 -9.5446229e-01
  1.7956097e-01
 -5.0600708e-01
  5.0741099e-02
  2.6542358e+00
  2.0930667e+00
  2.4965124e+00
  4.3844306e-01
  3.6059642e-01
  2.2952519e-01
 -1.7914125e-01
  1.9862074e+00
 -2.8059223e-01
 -6.0675997e-01
  4.0384106e-02
  1.6106562e-01
  1.5201120e+00
  8.0050650e-04
 -6.8885821e-01
  3.0283993e-01
 -5.0316530e-01
  1.6274714e+00
  1.4649686e+00
 -1.1975354e+00
  1.6099185e+00
 -1.2558108e-02
  4.6541896e-01
  6.5285093e-01
  1.3047114e-01
 -3.7388285e-04
 -9.0606703e-04
 -4.3673045e-04
  2.3103300e-03
 -1.1660837e-03
  1.1546607e-04
  5.2321283e-04
 -1.6403892e-04
  2.1774645e-03
 -5.7330515e-05
 -1.4332832e-03
 -3.7705066e-04
 -6.9949764e-04
 -8.7002967e-04
 -6.2940468e-04
  1.5495136e-05
  1.0625485e-03
  1.2708125e-03
 -1.7517622e-04
  8.1698998e-04
  3.8860895e-04
  3.2136080e-04
  3.8363768e-03
 -1.2115757e-04
  4.3063203e-04
  3.2984934e-04
  3.5749662e-03
  1.5921472e-05
 -8.2188031e-05
 -4.5108094e-04
 -1.6541709e-01
  1.5378864e+00
 -8.4251165e-01
  1.0392780e+00
  3.6175265e-03
 -6.5529030e-03
 -7.6903336e-05
  1.5919469e-03
 -4.0831291e-03
 -2.9386347e-04
 -3.3377664e-04
 -7.6592302e-01
  6.8618411e-01
  1.2841572e+00
  4.4970210e-03
 -2.9770824e-01
 -1.1965725e+00
 -1.0478911e+00
  1.9285762e+00
  2.0926828e+00
  1.1541137e+00
 -1.2817260e+00
 -1.1360738e+00
 -8.5429233e-01
  5.0606036e-01
 -4.3690638e-04
 -3.7093373e-04
  2.3028141e-01
 -7.6601945e-04
 -9.4621698e-04
 -4.5050874e-01
  7.4723459e-05
 -1.2353319e+00
  8.9494210e-01
 -2.9904336e-01
  3.7149724e-04
 -2.1265175e-04
 -2.5049286e-04
 -7.0592236e-05
 -2.2514632e-03
 -7.9671771e-04
  7.8950950e-05
  1.0001277e-02
 -1.1393921e-05
 -8.4034748e-02
 -6.9467071e-04
  2.6803087e-03
  1.3244994e-03
  4.6510879e-05
 -1.5956169e-04
 -3.3014055e-04
  8.5311587e-04
  3.0315972e-05
  4.7040880e-01
  1.0840510e-01
 -3.5107714e-06
 -6.9730007e-04
 -3.4783213e-04
  2.4787993e-03
 -4.0807110e-05
 -1.8629730e+00
 -5.9951496e-01
 -8.1252134e-01
 -4.4111453e-02
 -7.7139753e-01
  1.6641280e-01
  8.9863843e-01
 -1.9205800e-01
  4.0102169e-01
  2.4272209e-02
 -4.6611971e-01
  6.5116614e-01
  2.6330763e-01
  3.4859270e-01
  1.1350309e+00
  3.0900818e-01
  5.9235579e-01
 -3.7584084e-01
 -3.9399862e-02
 -1.3117462e-01
  7.8707296e-01
  1.1813538e+00
  5.9670359e-01
  1.6089903e+00
  1.3107106e-01
  1.0361071e-02
  2.3616885e-01
 -6.1272047e-02
  4.9976492e-01
 -1.8983213e+00
  1.3987428e-01
 -5.2903626e-02
  1.7657079e+00
 -9.0203717e-02
 -1.7405374e-01
  9.7418249e-01
  8.1373357e-05
  5.6634173e-03
  9.7816592e-05
  2.2183733e-04
 -6.1832776e-04
 -6.5813767e-04
 -1.3605887e+00
 -4.8887849e-01
 -6.5255803e-01
  2.1244937e-03
  1.4199630e+00
  2.1749244e+00
 -2.6310721e-04
 -2.8766762e-02
 -1.9278324e-01
 -1.4197012e+00
 -9.4627827e-01
  1.2009993e+00
 -2.2313155e-02
  5.7073790e-03
 -2.9561593e-04
  3.9749648e-03
 -2.3822293e-03
  2.2604479e-01
  1.0894009e-01
  2.2438688e-04
  6.0341161e-01
  5.5972868e-01
  4.0048517e-02
  6.1320263e-01
  2.2134180e-04
  8.3740911e-04
  1.1098726e-03
 -2.3613584e-03
  4.9372446e-03
 -8.2417782e-03
  1.6306833e-03
  3.2079723e-04
  9.3607133e-04
 -2.0858183e-04
 -1.0073936e+00
  9.8489064e-01
 -9.0841778e-02
 -3.4863572e-03
 -1.1374730e-01
  9.4275311e-02
 -2.7701214e-03
  5.4323205e-05
 -2.3284527e-02
  7.9837593e-04
 -1.4656394e-04
 -2.2317108e-03
  7.5630371e-05
  3.2557891e-04
 -2.8408272e+00
 -1.0870504e+00
  2.7205148e+00
  6.0223752e-01
  1.4718717e+00
  6.4589596e-01
  4.3510694e-02
  1.2351040e-04
  7.8500173e-04
 -3.4680191e-04
 -2.4882331e-01
 -1.1450014e+00
 -4.2441654e+00
  1.5437067e-01
 -1.4090825e+00
  3.6982986e-01
  1.9254453e+00
  7.3488432e-01
 -4.8281398e-02
  4.6971126e-04
 -8.3017939e-01
  9.3231224e-02
  2.2916473e-02
  3.7304974e-01
  1.0369337e+00
 -1.0226263e-03
 -2.9900360e-01
 -8.0731546e-04
  6.8427627e-03
  1.2946490e+00
  2.0258214e+00
 -9.0533972e-01
  1.6318922e+00
  1.0472870e+00
  1.6397321e+00
  5.8820796e-01
 -5.2640933e-01
 -1.2148262e-04
 -3.0768411e-03
 -2.7447274e-01
 -5.3360662e-05
  7.9601511e-02
  6.7651557e-04
 -2.0925498e+00
 -1.0152143e+00
 -2.8195435e-01
 -8.4474176e-01
 -2.9695991e-01
 -4.0661309e-02
 -7.0446593e-01
 -9.6078062e-01
  3.9484334e-01
 -1.2763266e-01
  4.1307768e-01
  2.6765576e-01
  7.4951757e-05
  1.3194961e-03
 -8.1850431e-04
  1.7304012e-03
 -5.2903011e-04
 -1.6691138e+00
  2.5863893e-02
  1.1891004e+00
  1.0568233e+00
  1.2326071e+00
  1.1489875e+00
  6.0437226e-01
  1.5011187e-01
 -3.6844925e-04
 -5.0340034e-04
  1.9644205e-01
  7.9999614e-01
  1.6435193e+00
 -6.4446050e-04
 -1.6994914e+00
 -6.0555063e-05
 -2.0628815e+00
  9.7240072e-01
  2.6217645e-01
  7.3653640e-04
 -4.1852602e-01
 -1.7651075e-02
 -5.1778448e-01
 -9.2513156e-01
 -1.2714130e+00
  1.1231325e-03
 -8.5521564e-03
  7.8972274e-01
 -5.1308004e-04
  1.4127134e+00
 -1.5965865e+00
  5.7564932e-01
  2.5777626e-01
 -1.2993948e+00
  2.2446775e+00
  3.9830418e+00
  2.9063046e+00
  9.8641753e-01
  3.0150256e-04
 -1.2977521e-01
  2.9081621e+00
  2.5286446e+00
 -8.6172950e-01
  2.8263705e-04
 -1.0509198e-01
  7.7137613e-01
  2.2304218e-01
 -7.5275707e-01
  6.7436433e-01
 -3.6861334e-02
 -1.0457426e+00
  6.9123602e-01
 -1.0345625e+00
 -2.6492564e-02
  1.0035671e+00
  1.4945297e+00
  1.6722180e-01
  2.3202373e-01
 -5.3148150e-01
  1.0338188e+00
  1.6294029e+00
  2.0520873e-02
 -9.9041587e-01
 -1.2375551e+00
  5.5967033e-01
 -3.1434557e+00
 -9.7450972e-02
 -1.0757396e+00
 -1.0770580e-03
  5.5565828e-01
 -2.3578126e+00
 -3.4795830e-01
  7.1881473e-02
 -2.4851514e-01
 -1.3567251e-01
 -8.2219553e-01
 -4.2359543e-01
 -4.3491742e-01
  8.8195896e-01
 -2.6164174e-01
 -2.2149049e-01
 -1.9268207e-01
 -6.2858731e-01
  8.0628848e-01
  6.3421679e-01
 -6.3925833e-02
 -5.1021338e-02
  9.3669869e-02
  1.8594519e-05
 -1.0512720e+00
  1.4509749e-02
 -3.3603166e-04
  9.3832128e-02
 -7.1461322e-03
  2.3627908e-04
  6.7689349e-03
 -5.2950665e-04
 -6.9639640e-04
 -1.1080236e-03
 -1.1752399e-03
 -4.1386204e-05
 -1.0141216e-03
 -4.3163105e-04
  3.2089549e-04
 -1.2707867e-04
 -1.5354884e-04
 -3.2722772e-05
 -5.4344902e-04
 -1.4940702e-03
 -8.3879975e-04
 -2.7591249e-02
 -1.2052088e-03
 -1.5450001e-03
  5.7214929e-04
 -1.3741526e-03
  1.1483480e-05
  9.1289228e-05
  8.4038952e-04
  5.6881120e-04
  4.3561062e-04
 -1.1599877e+00
 -1.0467539e+00
  1.2651833e+00
  1.7494568e+00
 -1.7747376e+00
  1.4380832e+00
 -5.5156980e-04
 -2.8843776e-04
  3.7439362e-04
 -2.1760963e-01
  2.3469174e+00
 -6.8300444e-01
 -1.7623919e-01
  7.7766371e-01
  4.3660280e-01
 -7.2144700e-04
 -1.0617100e+00
 -4.9017158e-01
  1.5721989e+00
  1.3587939e+00
  5.2008832e-01
  4.2440298e-01
 -1.3959755e+00
 -3.5592582e+00
  6.9178194e-01
  2.6826151e-02
  5.3078771e-01
  4.6249792e-01
 -6.6544185e-04
  3.8601004e-04
  3.9216658e-01
  1.2238455e-03
  1.5342575e+00
 -4.5890645e-03
  2.2667815e-01
  2.0569147e-04
  2.1796999e-04
  3.1788009e-03
 -9.6488082e-05
 -1.6021614e-03
 -1.1123535e-04
 -2.0533775e-04
 -2.1090190e-04
 -7.8739104e-04
  1.3037771e-03
 -5.9331091e-05
 -1.9747021e-03
  3.2886915e-04
  1.6723450e-04
 -4.7379840e-04
  1.7847897e-05
  4.6206275e-03
 -3.0721533e-03
  3.3621903e-04
 -9.8720714e-02
  1.4296729e-03
 -1.9107100e-03
 -2.0465319e-04
  4.1890485e-04
  1.4306521e-03
 -4.8831654e-01
 -2.1354456e-01
 -8.9398116e-01
 -1.9814416e+00
 -2.8919091e-02
 -3.5730923e-06
 -3.3076632e-01
 -5.6799310e-03
  5.6845247e-04
 -6.7822769e-04
 -4.1500849e-01
 -6.8389982e-01
 -1.4481803e+00
 -2.9120789e+00
 -3.2942047e+00
  4.1665428e-04
 -4.6424490e-01
 -2.6720716e-04
  1.0003332e+00
  7.1617562e-01
 -2.1945333e+00
 -1.1688956e+00
  1.6816407e+00
  4.9274206e+00
 -2.2604795e+00
  1.2282378e-03
 -3.9557143e-04
  4.3935273e-04
  9.1373123e-04
  5.6991279e-01
 -1.4382457e+00
 -2.5531898e+00
  1.1603327e+00
  2.4658784e-01
 -1.7626618e+00
  3.1641567e+00
  1.0865699e+00
  1.7778048e-01
  1.9619297e-03
 -4.1002683e-02
  9.8165941e-01
 -5.0178456e-01
  1.3336222e-01
 -1.8538031e-01
 -8.0810115e-02
  1.0327485e+00
  2.1085653e-02
 -9.4592565e-01
 -4.6067438e-01
  2.7565730e-01
  3.5476574e-01
  1.0671268e+00
 -1.2415829e+00
 -2.0475724e+00
  6.8932422e-02
  1.7336551e-04
  3.0544329e-01
  1.2975358e+00
 -3.0667409e-01
  1.5664609e-01
  9.6229917e-01
 -6.3902348e-01
 -1.0810366e+00
 -6.7284161e-01
 -1.0460305e+00
 -5.1922259e+00
 -1.0871055e+00
 -4.9285083e+00
 -5.1222919e-03
 -8.1227010e-01
 -9.4364658e-03
  8.2085383e-01
 -1.6622367e+00
 -1.7922181e-01
 -1.0124389e+00
 -1.3090786e+00
 -8.2339048e-01
 -6.5531999e-01
 -1.7428166e-01
 -2.9255562e-02
 -1.9609587e+00
 -7.3181993e-01
 -1.7790887e-01
 -2.9878423e-01
 -1.8200471e-01
 -1.2588184e+00
  6.3627851e-01
  1.2341341e+00
 -3.8914269e-04
  1.8149474e+00
  3.0862916e-01
  3.2294741e+00
 -5.9783804e-01
  2.7804969e-02
 -6.6774607e-01
 -1.8195720e+00
  1.6959707e-01
 -4.0101443e-04
  1.9263357e-01
 -2.7746829e-04
 -1.2725134e-01
  5.2444035e-01
 -3.6057976e-01
 -1.4680552e+00
 -3.6956531e-01
 -2.3863506e-02
 -9.6029304e-02
  2.6743960e+00
  1.7175254e+00
 -1.7267646e+00
 -2.4010194e-03
 -1.3203914e+00
 -4.6362153e-01
  3.7549794e-01
 -4.6254677e-01
 -4.5794854e-03
 -1.3540046e-03
 -1.8756691e-04
 -1.1558606e-03
 -2.9790390e-01
 -9.4000202e-01
 -1.8752103e+00
 -1.2525880e+00
 -4.7739872e-01
 -2.5525457e-01
  1.3764710e+00
 -2.7309370e-01
 -4.0542424e-02
  1.5890926e-02
  7.3761308e-01
 -2.6463220e-04
  2.9637194e-01
 -3.2201219e-01
 -1.9300871e-01
 -1.1915404e+00
  7.2852302e-01
 -3.8004234e-01
  7.3088592e-01
  2.9598475e-01
 -4.9255359e-01
  1.7407606e+00
 -1.1739723e-01
 -8.8981831e-01
  7.3902583e-01
  7.7658272e-01
  3.0414340e-01
 -2.2432657e-01
 -1.2139249e+00
  8.5797149e-04
  7.9010111e-01
  1.2460563e-01
  4.3909466e-01
  3.0981541e+00
 -9.4245321e-01
  1.5329978e+00
  4.5586191e-02
  1.4662234e+00
  3.1706041e-01
  6.5266460e-01
 -1.3431960e+00
  1.0069467e+00
 -1.3258092e+00
 -1.7836157e+00
 -1.2515587e+00
  3.0027199e+00
 -4.9316013e-01
  1.5956973e-01
 -8.1460643e-01
  5.0999761e-01
 -8.5361964e-01
  4.9242371e-01
 -9.2878830e-01
 -2.3513740e-01
  5.2778572e-01
 -2.2850970e-02
  1.9228959e+00
  1.4934107e+00
 -4.8419759e-01
  3.3867776e-01
  2.3007767e+00
 -5.3244215e-01
  4.1922387e-01
  1.4799342e+00
 -1.6403834e+00
  3.6490428e-01
 -3.0857458e+00
  7.3008472e-01
 -7.7590579e-01
 -1.1230201e+00
 -4.5038518e-01
  2.9130921e+00
 -2.4725361e-01
 -1.8026702e+00
 -1.4969983e+00
  3.4076166e+00
  4.6427181e-01
  4.3996179e-01
  5.3375328e-01
  1.3488997e+00
  6.7403108e-01
  1.6121303e+00
 -1.5097959e+00
  1.5188192e-01
  6.8103433e-01
  2.6072681e-01
  6.4016169e-01
  2.0921581e+00
 -2.4319022e+00
 -9.6738350e-01
  2.7497017e+00
 -3.1105241e-01
 -1.8912441e+00
  8.2861120e-01
 -2.6385751e+00
  1.0096958e+00
  2.7597353e+00
  5.3933682e-04
  1.8195400e-02
  7.7680093e-01
  1.2214155e-02
 -1.5015467e+00
 -7.5444239e-01
 -2.4101464e-01
 -7.0976013e-01
  2.3291028e-01
  2.9010315e+00
 -5.5918481e-06
  1.9158353e+00
  1.4776926e+00
  1.6357028e-01
 -1.4123920e-01
 -4.1486928e-04
  3.1755264e+00
 -8.0218472e-02
 -1.7104409e+00
 -5.3806734e-01
 -3.5209014e-04
 -7.2723925e-01
  2.3316003e-02
  1.7673906e-02
  7.6062590e-01
  1.2317611e+00
 -1.1985914e+00
  1.2063730e+00
  3.2743642e+00
  3.3857742e-01
  2.4420149e-05
  2.4445920e-01
 -5.5789045e-04
  1.3105718e+00
 -3.0663840e-02
 -3.5853119e+00
  1.1221329e+00
 -8.7267584e-01
  7.0115548e-01
 -9.7192758e-01
 -3.9573321e-01
 -8.5363036e-01
  1.8617517e-01
  2.4623013e-01
  5.2377528e-01
  1.5173861e+00
  7.1277763e-03
 -4.7894484e-01
  6.1120331e-01
 -1.1014038e-01
  1.4981929e-04
 -3.4180024e-01
  5.1316293e-03
 -5.8356798e-01
  1.6801851e+00
 -2.2799037e+00
  1.5858363e+00
 -2.7795047e-01
 -1.3457726e+00
 -8.3621120e-01
 -6.7667419e-04
 -3.0604780e-05
 -1.0688943e+00
 -9.7184020e-01
 -7.6022196e-01
 -1.7235520e+00
  6.9752645e-01
  1.3556418e-01
  7.1019804e-01
 -1.0970261e+00
 -1.2473772e+00
  1.2515737e+00
  9.8857385e-01
 -5.2599633e-01
 -1.1075794e+00
 -3.6587855e-01
  9.9206723e-02
  1.1900152e+00
 -1.0587612e-01
 -2.6539576e-01
  2.2459102e-03
 -4.3472967e-01
  1.1463389e+00
  5.2040845e-01
 -1.2297732e-01
 -1.8983793e-01
 -1.1302559e+00
  4.3750691e-01
  6.5794653e-01
 -1.7602817e+00
 -1.5009852e-01
 -8.0271220e-01
 -1.2978400e+00
 -1.1678447e+00
 -3.9860401e-01
  1.0739888e+00
  4.2018914e-01
 -1.0114880e+00
  7.6155293e-01
 -1.3756711e+00
  9.0294570e-01
  1.0340307e+00
  1.0688379e+00
 -9.3781197e-01
  4.6758878e-01
 -4.5279357e-01
  1.8191886e-01
  4.6752691e-01
 -1.3086818e+00
  2.3393965e+00
 -4.6790196e-04
  1.0719249e+00
  8.9124227e-01
  2.2006018e-01
 -2.6077130e-01
  1.6735432e+00
 -1.9196020e+00
  5.2748179e-01
  2.4050350e+00
 -5.2452350e-01
 -1.2877537e+00
  2.0029576e+00
  8.2120561e-04
 -6.9638366e-01
  7.7344209e-01
 -1.3393340e-01
  7.5884277e-01
  1.2410036e-01
  6.1232853e-01
 -2.0558341e+00
  8.3166927e-01
  3.9746246e-01
 -2.3976536e-01
  5.7015777e-01
 -7.9678673e-01
  1.1025258e+00
 -1.2805336e+00
 -9.1835648e-01
  1.3137315e-01
 -1.9752293e+00
 -3.3607066e-02
 -2.4228590e+00
 -2.8041109e-01
 -7.6939189e-01
 -1.3118996e-01
 -7.5133824e-01
 -5.9478767e-02
 -5.8391184e-01
 -2.4949391e+00
  8.2848167e-01
  2.5234348e-04
 -3.4351990e-02
  7.1370029e-01
  1.4739627e-03
  3.7859401e-01
 -6.0051417e-01
 -1.9274808e+00
  3.6594355e-01
  2.0485177e+00
 -4.9300611e-01
 -7.3585516e-01
 -4.5824653e-01
  6.0795665e-01
  7.0251554e-01
  2.1018952e-01
 -2.2889392e-01
 -5.1286030e-01
  1.8714162e+00
 -9.0234834e-01
  7.5532809e-02
  1.3556081e-01
  2.2202851e-02
  5.2326035e-02
  9.1479641e-01
 -5.9798950e-01
  9.5087655e-02
 -6.6048570e-02
 -1.0459290e-03
 -2.6228194e-04
 -9.5370400e-05
 -3.9615363e-05
 -1.3285420e-04
 -7.4409749e-05
 -7.8823730e-05
 -2.5352879e-04
  3.1780644e-04
 -1.5017518e-03
 -2.4184272e-04
 -5.9925008e-01
  2.8426468e-04
  5.1354314e-04
  3.2078419e-03
  2.6631157e-04
 -1.9548820e-04
  2.5021049e-01
  8.7283544e-05
  3.8881027e-03
  2.8676961e-02
 -2.5590574e-05
 -2.4360970e-03
 -2.9661405e-04
  2.8850316e-06
  3.4806592e-04
 -3.0922823e-04
  5.5477905e-01
 -1.3295583e+00
  1.3622587e+00
  2.3279800e-01
  1.3782221e-02
  1.9889836e-04
  2.3692364e-05
 -1.2781826e-03
  2.6746222e-03
 -1.7960914e-05
  1.3342003e+00
  2.0953099e-04
  1.8015093e-01
  9.6378334e-02
  6.6227645e-01
 -4.7821304e-01
  4.2158164e-02
  3.1953955e-01
 -1.4184848e-02
  5.8277911e-01
  2.1988432e-01
 -4.1708026e-05
 -2.6775196e-01
  2.6710597e-01
  2.4157672e-01
  1.7435212e-01
  8.5373278e-05
  5.4607438e-03
 -1.3929674e-04
  8.6828484e-04
 -7.0964289e-01
  1.7954446e+00
 -5.6661472e-02
  3.5130591e+00
 -1.0897453e+00
 -1.0710027e+00
 -1.4033866e-04
  3.6767172e-03
 -6.8112113e-02
 -8.5982412e-01
 -3.5720050e-01
 -9.1705956e-03
 -2.1957864e-01
  6.9707102e-01
 -1.1340097e-01
  2.8712147e-01
  2.1814117e-01
  2.0749475e-01
 -2.6765564e-01
  2.2613317e-01
 -1.5346278e+00
 -1.2997895e+00
 -9.1280150e-01
  8.2395971e-02
  1.3626865e+00
 -9.9994797e-01
 -3.8471437e-01
 -5.9468961e-01
 -4.3723159e-04
 -9.9978130e-04
  3.5453930e-01
 -1.8191615e+00
  1.5869517e+00
  8.9743161e-01
 -2.0716190e+00
  1.8788656e+00
 -1.7186149e-03
 -9.0483034e-01
  1.1799239e+00
 -2.9126349e-01
  1.1653570e+00
  1.9080509e+00
 -1.4814162e-01
 -6.6825056e-01
 -6.7568862e-01
 -2.4376306e-01
  3.2190749e-01
  3.1470343e-01
 -2.0945671e-01
 -4.7976065e-01
 -1.8448986e-02
 -1.0350711e+00
 -6.4586556e-01
  5.0576061e-01
  2.7085719e-01
 -1.3952275e-02
  7.2209269e-02
 -3.4333771e-01
 -3.8996431e-01
 -9.5952690e-01
  3.2196146e-01
 -1.0553459e-02
 -1.0573039e+00
  2.4765279e+00
 -9.1980499e-01
  1.2318535e-03
  3.8002961e-06
  5.0193328e-02
 -1.9225592e-03
  4.6172633e-04
  1.2472999e-01
 -1.0670649e-03
  6.2492359e-02
  1.4141180e-04
  1.1089975e-03
  1.4199038e+00
  9.7317487e-01
  1.6116976e+00
  7.0776511e-03
  1.7962348e+00
  3.2573253e-01
 -1.9213342e-03
 -8.6164105e-01
 -1.5943154e+00
 -3.1506439e-05
  2.2040839e-01
 -6.3687697e-04
  1.3148136e-04
  3.8173040e-03
  1.4659005e-02
 -1.8895179e-01
 -4.0699610e-01
 -1.5500938e+00
 -7.1286488e-01
 -1.4218719e+00
  1.4721761e-04
  1.9463882e-03
  1.1427536e-03
  5.7561278e-01
 -1.7417478e-04
  5.5568653e-01
 -9.2166144e-04
 -2.5098817e-02
 -3.9879042e-01
  8.9158255e-01
  6.8042481e-01
 -2.3406007e+00
 -1.1218598e-02
 -7.0191115e-01
  1.9965461e-01
 -2.2115625e-01
 -8.0527920e-01
 -3.7543336e-01
 -1.1706880e-03
 -2.2112844e-03
  6.5858808e-04
  1.4250126e-04
 -2.2328158e-04
 -7.5766555e-04
  4.7848764e-01
 -1.0255311e+00
 -1.3945745e-02
  2.7438319e-01
  2.4041491e+00
  2.7894232e-01
 -2.2752835e-04
  3.0297367e-04
 -4.3641863e-04
  6.0152910e-03
  7.7997436e-05
  1.9468171e-04
  2.5771957e-04
  7.1186349e-02
  3.9470963e-02
  1.3681597e-04
  3.9445594e-01
 -1.4405610e-01
  3.8266068e-04
 -9.0505606e-01
 -1.7129663e-01
  1.1008935e+00
 -1.6562101e-04
  1.8566134e+00
  1.3310805e-01
  3.9007398e-01
 -1.0324402e-04
  1.0257346e-03
  3.4773888e-04
 -5.1413075e-04
 -5.2203709e-04
  2.4280535e-02
  1.7638091e+00
 -3.9906010e-02
  2.0669436e+00
 -2.7659643e-01
 -5.6501399e-03
 -2.9151270e-03
 -5.3928170e-04
  6.5518927e-04
 -5.3315270e-01
 -1.1827083e-03
 -2.2264430e-01
 -3.1567660e-01
  2.0743327e-01
 -2.8716439e-01
  2.1671619e-01
 -8.0640775e-01
  1.2378927e-01
  1.9145787e-01
 -2.0268829e+00
  2.8706515e-02
 -2.1340461e-01
  6.1998022e-01
 -8.9234823e-01
 -2.5486131e+00
 -2.1797488e-02
  3.6530200e-04
 -1.1222436e-03
 -3.1542238e-03
 -8.4585010e-04
  5.6685128e+00
  1.8387036e-01
 -5.2545422e-01
 -8.6731732e-02
 -3.2373023e+00
  7.9748407e-04
 -9.7367831e-04
  9.5988148e-01
  1.2929317e+00
  6.8007189e-01
 -3.4572741e-01
  1.0999027e-04
  8.5386606e-03
  7.3735544e-05
 -8.2417957e-02
 -7.9403454e-01
  4.0939995e-03
 -3.4149446e+00
 -2.7859659e+00
  1.5740558e-04
  1.1934899e+00
 -5.8398393e-05
 -4.3552715e-01
 -9.1157907e-01
 -4.4741657e-01
 -1.6662639e-01
  1.1418226e-04
  2.1919249e-04
  2.5464371e-05
 -6.1897932e-05
 -8.8713139e-02
 -1.1301811e+00
  4.1009545e-01
  3.7979343e+00
  1.3805164e-01
 -1.6072356e+00
 -2.8479129e-01
 -8.0216235e-01
 -7.5052274e-05
 -1.2538201e-04
 -1.2037857e+00
  2.1815313e-01
 -2.4939904e+00
 -1.1989018e-01
  6.6487975e-02
 -6.6414475e-01
 -2.8074837e-01
  2.4331455e+00
  8.9911327e-02
  7.8442115e-01
 -6.1675990e-01
  2.4198494e+00
 -4.5914945e-01
  2.5224428e+00
  3.7646413e-01
 -5.4738804e-04
  2.1153744e-03
  2.5274956e-05
 -4.7255261e-04
  2.8030356e-04
 -4.5258214e-04
 -4.0955556e-04
 -4.9508590e-04
  1.7319106e-04
 -6.8099052e-04
  8.3344363e-05
 -1.0833679e-03
 -2.5667349e-04
 -5.0777872e-04
 -8.1099461e-05
  5.9738932e-06
 -2.2301974e-04
 -4.4418294e-03
 -1.9103538e-03
  1.1785940e-04
  6.1345490e-04
 -1.6787165e-04
  5.6597764e-05
  2.8575007e-05
  6.0264163e-05
 -6.1598497e-05
  3.5602661e-04
 -1.2953522e-03
  6.6808541e-04
 -1.2802162e-03
  1.5967583e-03
 -6.2647508e-05
 -1.9483057e-04
 -1.0147250e-05
 -1.8272776e-03
 -1.7218093e+00
  2.1536961e+00
 -2.3812609e+00
 -5.2171081e-01
  1.0583414e+00
 -5.9100671e-04
  4.7228037e-04
  1.8063876e-03
  6.4222032e-04
  1.5312384e-04
 -6.6280678e-02
 -1.6225421e-01
 -2.6233339e+00
 -1.5231330e-03
  4.1699031e-01
 -2.1997316e+00
  6.2822700e-01
  2.6562607e+00
  1.5730259e-01
  1.2239798e+00
 -3.6633618e+00
 -1.6381160e+00
  1.4646752e+00
 -2.4683625e-04
 -1.4276495e+00
  7.5794894e-01
  7.3377951e-04
  5.3413397e-01
  4.1139641e-01
  6.3726556e-01
  7.4212945e-01
 -2.3897004e-01
 -5.3570753e-01
 -1.9525945e-02
 -2.4587991e+00
 -2.8501253e+00
 -1.4846733e-01
 -1.7179543e+00
 -1.3505068e-01
 -3.4414127e-01
 -2.3602174e-01
 -1.1384938e-04
  1.7539192e+00
 -1.8693447e+00
 -9.1682374e-02
 -6.0673076e-01
 -1.9056823e+00
  5.7185847e-01
  7.2926933e-01
 -5.2654165e-01
 -4.3573585e-01
 -2.6283950e-01
 -1.0471209e+00
  7.6569879e-01
  1.2261952e+00
 -1.1347526e+00
  8.4785022e-02
 -1.6229873e+00
 -1.8464304e-04
  1.7654972e+00
  1.4839536e+00
 -1.0708319e+00
 -1.1681182e+00
  1.2187382e+00
  7.6390469e-01
  8.8820310e-04
  4.7165886e-04
  1.0382856e-04
  6.4384520e-05
  1.3204900e-03
 -1.2412918e+00
 -6.5557069e-01
 -1.3278701e+00
 -8.3723360e-01
 -9.5088410e-01
  1.4729095e+00
  3.6698622e-03
  1.4800597e+00
  7.5821656e-01
  7.9625601e-01
  9.1186637e-01
  2.9364781e-04
 -1.1003997e+00
  1.1379541e+00
 -1.0702776e-02
 -9.8035580e-01
  5.6237628e-04
 -1.5407968e-01
 -1.2318674e-03
 -3.0822563e-03
  4.2940068e+00
 -3.2071501e-04
 -3.7203467e-01
 -4.0476513e-01
 -7.1649410e-02
  9.0269319e-04
 -6.0230988e-04
 -4.9394456e-01
 -4.5769247e-01
 -1.2388007e-03
  9.0967751e-01
  1.1466740e+00
  3.4881794e-01
 -1.4959359e+00
  1.9928386e+00
  1.4541430e-03
 -4.5965094e-02
 -2.8439885e-02
  1.1816849e+00
 -1.3589257e+00
 -6.9140029e-01
  9.5075164e-03
  1.6742005e-03
 -3.1412449e-03
  6.9854647e-01
  1.9403784e-01
  5.9285303e-05
  1.6776402e-04
  2.6310625e-02
 -1.9069317e-04
 -6.0509932e-01
  1.9788468e-01
 -6.5941817e-01
  1.5129733e+00
  1.5649887e+00
 -2.6164613e+00
  1.4742593e-04
  8.0239671e-01
  2.3078114e-01
  7.2056115e-01
 -8.0425107e-01
  7.9446745e-01
 -1.1030625e+00
 -4.7857922e-02
 -6.8457776e-01
  1.0947263e-01
  1.2260183e+00
 -1.3349316e+00
  3.4281084e-01
 -8.4982193e-01
 -1.6084092e+00
 -1.8762044e+00
  8.6865437e-01
  1.7152810e+00
 -4.3357037e-02
  2.4716774e-01
 -6.4729189e-04
  5.3248962e-04
  3.4903752e-04
 -5.4773474e-01
 -1.6420417e+00
  3.1833418e-04
  6.7511266e-01
 -6.3312575e-02
  1.4162593e+00
  4.2734586e-04
 -2.3114691e-04
 -3.6379966e-05
 -8.3669199e-04
 -2.2230634e-01
 -1.5420440e+00
  1.1474158e-03
 -7.5138885e-01
  4.6468776e-04
 -7.2863072e-01
 -1.7911531e+00
 -1.8200608e-01
  8.9177668e-01
 -3.0263622e+00
  7.1126360e-01
 -1.5418189e+00
 -8.1378274e-04
  8.9348215e-01
  1.4651408e+00
 -2.3206612e-01
  1.2426537e-03
 -4.8968900e-04
  3.7347309e-05
 -6.1000348e-04
 -1.2952185e-01
 -7.8668416e-01
 -4.9911705e-01
  1.6652909e-01
 -2.4536591e+00
 -2.8678629e-01
  2.8632465e-01
  4.6814665e-05
 -3.8102496e-01
 -5.8320314e-01
  1.8162305e+00
  1.1110120e+00
 -7.2536731e-01
  2.3104615e+00
  1.0005469e+00
  1.5540527e+00
 -6.4282495e-01
 -2.0536201e+00
  1.1009097e+00
  4.4776419e-01
  2.4453314e-01
 -1.1778915e+00
  1.6126680e-01
 -1.6132168e+00
  2.3273984e-02
 -2.4809831e-01
  3.7794572e-01
  1.6157408e-01
 -9.5771790e-01
 -4.3719802e-02
 -1.0096944e-01
  6.8368077e+00
 -6.1873549e-01
 -1.7620403e-03
  1.9194545e-04
 -5.7225414e-05
  8.1725162e-04
  2.7671037e-04
 -9.8399591e-01
 -8.8891655e-01
 -4.4503738e-03
  1.3027020e+00
  5.8110607e-01
 -7.1655602e-05
 -3.3677583e+00
  9.8592365e-01
  3.0819565e-01
 -1.9215133e-04
  2.2764864e+00
  4.2847570e-02
 -4.8112161e-03
 -1.1663133e-03
  9.4238497e-02
  6.7602872e-04
  1.1013593e-03
  1.0725510e+00
  1.2321952e-03
 -2.5362917e-04
 -2.5906628e-03
 -4.5058670e-04
 -7.8985211e-04
 -1.2860582e+00
 -1.0944006e-01
 -6.7174420e-02
  2.0885217e+00
 -1.4189495e-01
 -7.4653368e-04
  1.2660337e-03
  3.9124131e-01
  4.8982847e-04
  4.5787558e-02
  6.0665673e-01
 -2.6569227e-04
 -7.5784147e-02
 -1.6870111e-04
  6.0402144e-02
  1.0871344e+00
 -1.2891253e+00
  4.6894688e-04
  3.6206710e+00
 -2.8757086e-02
  2.0760791e-01
  2.2412324e-04
  1.9736018e+00
  4.5369949e-02
  1.9165331e-01
  5.8285071e-04
  1.1126833e-04
 -1.3534350e-03
 -9.2435301e-05
  2.8395568e-04
 -2.6221509e+00
  2.7785805e-01
  1.0410999e+00
  5.9886169e-01
  1.4295998e-01
 -1.4924443e-03
 -1.9662936e-04
  1.8937643e-01
  1.8512176e+00
  2.7457241e-04
  3.4805349e-04
 -1.9122837e-01
  1.9506968e-03
 -1.9059651e-01
 -7.5894773e-02
 -5.9283096e-01
  2.7043297e+00
  8.1294250e-01
  1.8101512e-01
  4.6492165e-01
  1.9186578e+00
 -8.6009335e-03
  2.6862898e-01
 -2.2158887e+00
 -2.3961030e-01
 -2.0208923e-02
  1.5494812e-04
  4.5657549e-03
 -2.9052696e-01
 -8.9162660e-01
 -5.6592906e-01
  1.3522608e+00
 -6.3955259e-01
 -9.8073530e-01
 -2.5138321e+00
  3.3550370e-01
  1.8113616e-01
  7.2236222e-01
 -3.8551359e-05
  2.8731287e+00
  8.8435614e-01
  3.0448890e-01
 -5.3918058e-01
 -1.6493386e-01
 -4.0047392e-01
  1.5820718e-01
  3.4552979e-01
 -1.9087263e+00
  1.6552892e+00
 -2.1171894e+00
 -2.1401782e+00
  3.5756296e-01
 -2.8389375e+00
 -1.8688729e+00
  4.9267736e-01
 -1.7994916e-01
 -3.8901414e-04
  9.0019318e-04
  1.5230608e-01
  2.6867359e-03
 -3.9803471e-02
  1.2078844e+00
 -5.1633990e-01
 -1.0688384e-04
  5.2353799e-02
 -1.5300302e-03
 -2.4177338e-04
  1.2290504e-04
 -8.5136777e-04
 -1.1251824e-04
 -7.8303047e-02
  8.5384300e-04
 -2.8151029e-03
  1.4780229e-04
 -5.3899186e-03
  5.6636846e-03
 -9.4204408e-04
  3.7870273e-02
  1.7364588e-02
  2.2433063e-03
  4.3438092e-01
 -7.3445000e-05
 -4.6153180e-02
  2.0326515e-04
  2.4571776e-04
  7.1417104e-05
  2.8954059e-04
 -5.0428411e-04
  5.2514959e-05
  3.9906887e-04
 -4.4496311e-04
 -1.0015467e-03
 -4.8289799e-05
 -1.3358674e-04
  2.2107571e-04
 -1.9134114e-04
  7.9992722e-05
 -3.6779430e-04
  5.6853412e-05
  7.4637806e-05
 -2.0034288e-04
 -5.4939268e-05
 -5.0123788e-05
  6.9088675e-04
  3.0958967e-05
 -6.0634378e-05
 -1.5201233e-04
 -3.0708089e-04
 -1.7931730e-03
 -3.8505602e-04
  2.2979519e-04
  4.3642285e-04
  1.7608673e-04
  1.3456865e-04
 -5.3451827e-04
  5.2350071e-05
  9.0572989e-04
  7.3630072e-05
 -5.0438585e-04
 -2.3599190e-04
 -8.3073384e-01
  8.3665150e-01
  1.6213224e+00
  3.7896842e-02
 -1.4092716e+00
  1.1387869e+00
 -8.8136196e-01
  1.8011102e-01
 -4.5371684e-01
  7.9674822e-01
  8.7437981e-01
 -1.1009235e+00
 -2.1811042e+00
 -9.0356922e-01
  2.5475976e-01
 -1.5916684e+00
  1.5644971e+00
  6.0642552e-01
 -1.6116464e-01
  6.0403973e-01
 -3.8636839e-01
 -2.1748493e+00
 -1.0632523e+00
 -4.1137356e-01
 -5.3258610e-01
  3.1465220e-01
  2.2739507e-01
 -7.7866066e-01
 -6.6955882e-01
  1.9900969e+00
  7.8404838e-01
  2.0988793e+00
  2.7893240e+00
 -1.8380145e+00
 -3.3916476e+00
  1.5980475e+00
 -3.3408877e-01
  4.9695390e-01
 -1.5853279e+00
  3.0583982e+00
 -3.7789923e-01
 -2.5079775e+00
 -7.0129162e-01
 -1.0117425e+00
  4.0829530e-01
 -8.9074612e-01
  4.8001733e-01
 -8.4858066e-01
 -1.6568326e+00
  6.5176046e-01
 -1.3530219e+00
 -3.1071606e+00
 -3.6737603e-01
  1.4715745e+00
 -2.1278305e+00
 -4.6490785e-01
  1.3120553e+00
  9.3756652e-01
 -5.4959798e-01
  7.2757488e-01
 -1.8623646e+01
  4.0602893e-02
 -4.0229589e-01
  2.5420289e+00
  1.5565941e+00
 -1.1158937e+00
 -1.5095590e-01
  1.3599409e+00
  1.2227685e+00
  1.8209722e+00
  1.0221983e+00
 -1.1786501e+00
  7.0693493e-01
 -1.2949958e-01
 -2.6789956e+00
  4.3346000e+00
  3.8928308e+00
 -3.0168843e-01
 -9.3277174e-01
 -7.4468303e-01
  2.1233239e+00
 -1.3837425e+00
 -3.8632948e-02
  2.2782209e+00
  2.5693040e+00
 -1.0380672e+00
  7.1762598e-01
  4.6912852e-01
 -4.0858427e-01
 -1.8878183e+00
 -1.8888886e+00
 -4.6473077e-01
  2.4611933e+00
 -8.2362211e-01
  1.5902507e+00
 -1.8833374e+00
  1.5564532e+00
 -4.5929432e-01
  2.2381539e+00
  1.3582950e+00
  1.8211918e+00
 -2.1237416e+00
 -2.3706996e+00
 -8.7727344e-01
 -5.9912664e-01
  1.5686554e+00
 -2.1298890e+00
  9.4117332e-01
  5.0363737e-01
  7.8236240e-01
 -1.6956542e+00
 -1.6777936e+00
 -1.4127192e+00
 -1.3824117e+00
 -3.8661530e+00
 -1.5038861e+00
 -9.6221346e-01
 -9.1303056e-01
 -3.8870755e-01
  1.5267571e+00
  9.9217844e-01
 -3.6314428e-01
  2.3086846e+00
  2.6699617e+00
  5.2233589e-01
 -5.3815854e-01
 -2.6180959e+00
 -1.1979244e+00
 -1.7327983e+00
 -2.0368509e+00
 -1.0395118e+00
 -7.7961493e-01
  9.6955121e-01
 -4.1110745e-01
 -1.2258900e+00
  1.5897709e+00
 -5.2034146e-01
 -6.4014710e-02
  1.2565923e-02
  6.4463061e-01
  8.8476110e-01
  8.1109516e-02
 -3.8862589e-01
  3.2955757e-01
 -2.4528763e+00
 -1.5098495e+00
 -3.1946328e+00
  1.8359879e-01
  1.8381673e-01
  8.5397530e-01
  1.9835911e+00
 -7.9873699e-01
  1.1130252e-01
  3.5410157e-01
 -2.1311872e+00
 -1.4131484e+00
 -2.9162998e+00
 -3.2323050e-01
 -3.8239273e-01
 -1.0677445e+00
  6.5706514e-02
 -8.2640749e-01
  9.5323324e-01
 -1.4809645e+00
  1.6550602e+00
 -1.6582940e+00
 -3.7489569e-01
  2.5212514e+00
 -4.6228343e-01
  1.6876379e+00
 -2.7239225e+00
 -7.1218544e-01
 -6.2711865e-01
  4.4371417e-01
 -4.6064898e-01
 -1.7961212e-01
 -3.6731910e-02
 -9.9180818e-01
  2.0966840e+00
  2.3239567e+00
  1.5349282e+00
  1.7640505e+00
 -1.7699835e+00
 -2.5039041e+00
 -2.1390648e+00
  1.8137536e+00
 -2.0740866e-03
  1.6731034e-01
 -1.4074880e-01
  1.9186895e-01
  2.9530162e-03
 -2.0349853e+00
  6.2516719e-01
 -1.6289449e+00
 -6.6167229e-01
 -1.7010162e+00
  2.6765326e-01
 -3.1901583e-01
  4.0302393e-01
  3.1279218e-01
  3.1668147e-01
  9.9457496e-01
 -9.1067672e-01
 -1.4473962e+00
 -1.0615484e+00
 -1.2177107e-01
 -3.2932065e+00
  5.8939117e-01
 -1.4272594e-01
 -3.6325625e-01
  1.1720786e-01
  2.8722626e-01
 -1.9041505e+00
  4.8961899e-01
 -7.9388994e-01
  1.5940152e-01
 -3.0688995e-01
 -5.9530395e-03
 -7.6500577e-01
  7.8387737e-01
 -3.0634360e+00
  7.3109068e-02
  2.3111415e+00
 -2.0714793e+00
 -1.6131639e+00
 -1.0574906e-01
 -6.2922388e-01
 -8.3447140e-01
  1.0234908e+00
 -1.5259976e+00
 -1.3797183e+00
 -2.6012499e+00
 -1.5211760e+00
 -1.3388999e-01
  2.9369996e+00
  1.0314852e-03
 -3.7771252e-01
  1.9055736e+00
 -7.4133366e-01
 -1.5169756e-01
 -2.4101903e+00
 -1.8730152e+00
 -9.2036045e-01
  2.1748036e-01
 -1.0564222e+00
 -1.0731326e+00
 -1.3277267e+00
 -6.0234028e-01
 -2.4082112e+00
  2.9982326e+00
  1.5049484e+00
 -1.7038418e-01
  4.7564793e+00
  1.0825862e+00
  3.5320535e-01
 -5.3114474e-01
 -8.3330739e-01
 -1.4633032e+00
 -1.2788353e+00
  1.8985640e-01
 -2.4686811e+00
 -1.3432631e+00
 -6.6104478e-01
  1.1012325e+00
  8.0463725e-01
  1.2028103e-01
  2.8374520e-01
 -1.1257236e-01
  1.1032062e+00
  6.4174408e-01
  2.5243449e-01
 -5.9868258e-01
 -1.4128201e+00
 -2.8274952e-02
 -5.3619874e-01
 -1.1241025e+00
 -1.9487472e+00
 -5.0800300e-01
  2.4419598e-01
 -9.9750257e-01
  1.7661462e+00
 -5.3960755e-02
  7.4990645e-02
  3.9492685e-01
  2.7920911e+00
  1.4067981e+00
 -3.2012768e+00
  5.0626416e-02
 -4.9212626e-01
  5.5240691e-01
  2.8781483e-01
  1.2640288e+00
 -8.3825380e-01
 -1.7902118e+00
  1.8888394e+00
  9.5582396e-01
  6.9738513e-01
 -6.6510743e-01
  7.1175164e-01
 -7.8681570e-01
 -7.3351002e-01
  4.5664191e-01
 -6.8162555e-01
  1.1714482e+00
  2.1362980e-01
 -2.3614532e-01
  3.6594042e-01
  8.1552249e-01
 -4.3175030e-01
 -2.9381403e-01
  1.1368765e+00
  2.4015802e-01
 -3.2849297e-02
 -3.1839010e-01
  1.8745928e-01
  1.3014552e-01
 -2.1082891e-02
 -3.0847305e-01
  1.3093773e+00
  1.2035290e+00
  1.1937426e+00
 -2.1054536e-01
 -2.9410539e+00
 -8.1458026e-01
 -4.9417421e-01
  3.2647733e-02
 -2.0990068e-01
  1.1700015e+00
  1.0051012e+00
  1.2630502e+00
  2.5491357e+00
  4.8487455e-02
 -4.9007845e-01
  6.7717642e-01
  2.2256629e-01
 -3.9943722e-01
 -1.0754502e+00
 -1.0889309e-01
 -2.2595252e-01
  8.1756127e-01
  1.7831670e+00
 -1.0688692e-01
  7.7271706e-01
  6.8651795e-01
  1.0954324e+00
 -1.8003987e-01
  3.8419992e-01
  5.5834734e-01
  1.3665196e+00
  3.8743329e-01
  2.2822818e-01
 -5.0836849e-01
  5.8531624e-01
  1.3248228e+00
 -2.5380477e-01
  2.6566768e-01
 -5.6706738e-01
 -6.6638418e-02
  1.3171647e+00
 -5.9063599e-02
 -1.9680259e+00
  5.0940180e-01
 -1.7272880e+00
 -1.3217139e+00
 -2.1003294e+00
 -9.0322018e-01
 -1.1283294e+00
 -1.7452173e+00
 -1.9807916e+00
 -9.7167218e-01
 -1.1927425e+00
  3.3508199e-01
 -6.8001306e-01
 -4.6961043e-02
  3.0337211e-01
  5.1247662e-01
  3.4235078e-01
 -8.8104373e-01
 -4.9940532e-01
 -9.3966544e-01
 -2.8483608e-01
 -2.5178850e-02
  1.0573064e+00
 -1.9338116e-01
  3.8871176e-03
 -2.4141593e+00
 -1.4570239e+00
  6.5143687e-01
 -7.3307925e-01
  1.8963569e-01
  5.1331651e-01
  3.8044015e-01
  2.5780264e-01
  9.9940994e-04
 -1.1747551e+00
 -5.2235302e-02
  1.2978376e+00
  1.6194799e+00
  1.6215584e-01
  3.9108118e-01
  1.3539989e+00
  6.4556414e-01
 -1.6451845e+00
  2.0471491e-01
  2.7228453e+00
  2.0307676e-01
 -6.2744683e-01
 -3.4989870e-01
 -1.2840244e+00
 -6.5211785e-01
 -3.3469823e-01
  1.0610763e+00
  1.3293192e+00
 -1.5800588e+00
 -1.2647142e+00
 -8.5766810e-01
  4.2456070e-01
  2.5120369e-01
  8.2359338e-01
 -6.2569934e-01
 -3.1819768e-02
  1.1770596e-02
  1.1770596e-02
  1.1770596e-02
  1.1770596e-02
  1.1770596e-02
  1.5871381e-02
  1.5871381e-02
  1.5871381e-02
  1.5871381e-02
  1.5871381e-02
  3.1467441e-02
  3.1467441e-02
  3.1467441e-02
  3.1467441e-02
  3.1467441e-02
  2.6046254e-02
  2.6046254e-02
  2.6046254e-02
  2.6046254e-02
  2.6046254e-02
  1.0847920e-02
  1.0847920e-02
  1.0847920e-02
  1.0847920e-02
  1.0847920e-02
  1.6048267e-02
  1.6048267e-02
  1.6048267e-02
  1.6048267e-02
  1.6048267e-02
