nep4 2 Cu Sn 
cutoff 5 5 108 108
n_max 4 4
basis_size 8 8
l_max 4 2 0
ANN 30 0
 -1.1808764e+00
  3.7198780e+00
 -5.4426134e-01
  1.1491279e-01
  2.3921251e-03
 -7.7654237e-01
 -7.4219672e-05
 -3.3984851e-02
  4.0899506e-03
  1.8958964e-03
 -1.9893737e+00
 -2.7341235e+00
 -2.5581846e-02
 -9.7522467e-01
  1.5317503e-02
  3.2685897e-01
  1.1820943e+00
 -5.5805987e-01
  5.5934864e-01
  2.0300310e+00
 -5.5479829e-04
 -3.3571849e+00
 -8.7222511e-01
  2.9007625e-02
  5.5452973e-01
 -1.8530713e-05
 -1.2367198e-03
 -5.0957729e-03
  5.7603378e-05
 -4.8597740e-05
  1.9465235e-01
 -2.2017697e-02
  2.1280882e-01
  1.1189842e+00
 -8.6152116e-03
  1.3985229e-01
 -1.7955150e-02
  6.3998783e-03
  2.0581791e-04
 -8.7056780e-04
  5.5075582e-04
 -2.5972632e-01
 -3.2483820e-02
 -6.4751193e-02
  1.3409782e-03
 -4.1069175e-05
  1.4226165e+00
  1.7180487e+00
 -9.7564697e-01
 -5.2993540e-02
 -3.9731045e-03
  2.3200156e-02
 -1.7705569e-01
  6.3178897e-01
 -4.2288627e-02
  1.0212233e-04
  2.0130655e-04
 -2.0512824e-05
 -4.2601565e-05
  5.2997685e-04
 -8.3379591e-01
 -3.5612342e+00
  4.6597075e-01
  2.5728369e+00
 -1.6132326e+00
  1.9397641e-02
  1.1632024e+00
 -7.9420157e-04
 -8.3577834e-05
  4.5340345e-05
  3.6230609e-01
 -1.0359216e-01
 -2.5931401e-02
 -3.4349247e-05
  6.0205305e-01
  1.1157570e+00
  1.6144878e-01
 -1.0863096e+00
  6.3623321e-01
  2.5881040e-01
 -4.2354418e-06
 -4.6004545e-02
 -1.5966287e+00
  1.5017200e-01
 -9.7223657e-01
 -1.5481228e-04
  3.9491025e-01
 -1.7613450e-02
  8.6577807e-04
 -1.1900559e-03
  4.2997554e-01
  5.8973205e-01
 -5.5129153e-01
  2.1565542e+00
 -2.0251334e+00
 -3.4545934e-01
  5.8564353e-01
 -1.0622086e-01
 -2.2617668e-04
  2.5331882e-01
  7.8840757e-04
 -4.2876637e-01
 -6.0289341e-01
 -9.0651429e-01
 -4.0861309e-01
  1.3337846e+00
 -7.8178608e-01
  5.4681480e-02
 -2.8163031e-01
  5.4698583e-04
 -7.3772997e-02
  9.6566027e-01
 -6.7900109e-01
  7.4912512e-01
 -3.1993005e-01
 -8.7875225e-05
  1.2058355e+00
  2.9458698e-02
 -6.1327737e-05
  6.0288244e-01
  6.8226210e-03
  3.5489933e-04
  3.0012982e-04
 -1.7769361e-04
 -9.9921075e-04
  5.6308294e-05
 -8.5461535e-05
 -1.6834760e-04
  3.8285631e-05
 -2.1408430e-04
 -6.8110690e-05
 -1.0876587e-03
 -2.9497784e-05
 -5.5907361e-07
 -1.0713832e-05
  2.1710820e-03
 -4.8677106e-05
 -3.9300292e-05
  1.7273427e-05
  2.6228072e-04
 -3.1801294e-05
  7.2322371e-05
  1.4122247e-05
  1.4823922e-06
 -1.4583764e-05
 -9.3713868e-05
 -3.0125153e-05
 -3.5185860e-03
 -4.2743297e-05
  4.3549997e-05
 -2.1220944e+00
 -8.8549721e-01
 -3.0342865e+00
  2.0364960e-01
 -5.1155782e-01
 -2.0247779e+00
  6.7954272e-01
  3.0958302e+00
  1.8451036e+00
 -1.7091675e-01
  3.6736524e+00
  2.1934447e-01
 -6.3740045e-01
  1.7841944e+00
  1.5527874e-01
  8.2228094e-01
  1.2699103e-01
 -6.8286330e-02
  4.6973750e-01
  5.6803530e-01
 -1.0503923e+00
 -6.0954249e-01
  6.0766451e-02
  1.6910895e+00
  6.6544473e-01
 -9.9951321e-01
 -9.0887362e-01
 -7.0444155e-01
 -1.4823008e-01
  9.5973112e-02
 -2.5647473e+00
 -1.3344000e-01
  4.3183073e-01
 -2.0621733e-01
 -9.0767944e-01
  3.9251250e-01
 -6.4768006e-05
 -7.5442862e-05
 -4.3633746e-04
 -1.2377825e-03
  7.5284433e-01
  2.0977182e+00
 -2.3175517e-01
 -4.0576935e-01
 -8.5946542e-01
  2.6349728e-05
  6.8802011e-01
 -1.9842819e+00
  2.1133246e+00
  1.0418038e+00
 -9.6276559e-02
 -3.4749219e-01
 -9.4944745e-01
 -2.9617087e-03
 -1.1500792e-01
  3.9205511e-04
  2.1256972e-05
 -1.3078233e-04
 -1.3159127e-05
 -5.0263796e-05
 -5.3254497e-01
 -6.5683442e-01
  3.4870017e-01
 -2.2340831e-01
  8.9562193e-02
 -2.0455437e+00
 -5.7148438e-02
 -9.7267553e-02
  6.8830213e-06
  2.0780835e-01
 -1.1550684e+00
 -9.7916549e-01
 -2.0554278e+00
  2.2410207e+00
  5.6691962e-01
  4.0549283e-05
  1.3862385e+00
 -5.9698796e-01
  3.2288343e-01
 -5.9559619e-01
  3.3771065e-01
 -2.0522408e-01
 -1.2905196e+00
 -3.0255377e-01
  1.4277222e-02
 -1.8311089e-03
  1.7414532e-05
 -2.1624243e-02
  5.8923959e-04
 -2.5467238e-01
  7.1642667e-01
 -4.8701289e-01
 -1.6789221e+00
 -1.9126434e+00
  3.3317873e-01
 -2.8826072e+00
 -5.2011472e-01
  1.1178502e-01
  4.6589088e-01
 -9.5089865e-01
 -7.3695153e-01
 -7.7788109e-01
 -6.7817524e-02
 -1.5470120e+00
 -2.8339515e+00
 -4.8325129e-04
 -3.0001044e+00
  1.6686898e-01
  3.7863600e-01
 -2.2282927e-01
  1.1082699e-01
  1.2544800e-03
 -2.5600336e+00
 -6.7497104e-01
 -5.4290336e-01
 -4.4956183e-01
  5.2052255e-06
 -7.0996624e-01
 -1.2177036e-03
 -1.4992467e+00
 -6.4765126e-02
 -1.2089368e+00
  2.7698069e+00
  1.9133002e+00
 -2.9539484e-01
 -1.1260462e-03
 -1.2633643e-02
 -3.9858761e-04
  6.5085645e-05
 -3.2247048e-05
  1.5730425e-04
  1.1515050e+00
  1.8099423e-01
 -5.0107932e-01
 -6.3086838e-02
 -1.3184695e-03
 -1.1767316e+00
 -1.2624553e+00
 -1.7267184e-01
 -8.7826781e-02
  2.0708989e-05
 -2.2375904e-02
 -3.7011206e+00
 -1.4188799e+00
 -1.7115320e-01
 -2.9378908e-04
 -4.4177214e-04
 -3.6833960e-01
 -4.5915436e-05
 -3.5826974e-02
  5.6508052e-01
 -9.5973152e-01
  1.7138645e-01
 -5.0601524e-01
  5.0345421e-02
  2.6569066e+00
  2.0178590e+00
  2.3122687e+00
  5.1404756e-01
  3.6047518e-01
  2.2960009e-01
 -1.8466546e-01
  1.8964248e+00
 -2.7953514e-01
 -6.0628712e-01
  6.1895456e-02
  1.5997225e-01
  1.4709493e+00
 -8.6494097e-03
 -6.9891465e-01
  5.1406437e-01
 -5.0320739e-01
  1.6274714e+00
  1.4162486e+00
 -1.1911167e+00
  1.3602173e+00
 -1.2643096e-02
  4.2710185e-01
  6.5320015e-01
  1.1313710e-01
 -1.6734471e-03
  1.4140963e-04
  9.0981368e-05
  1.1571262e-03
 -1.6890658e-03
 -2.8115815e-05
 -2.1809846e-04
 -1.5653959e-04
 -2.7312702e-04
  4.1258994e-05
 -1.6008840e-04
 -8.0275153e-05
 -7.8127472e-05
 -1.6934827e-06
  1.5432341e-04
  2.9424873e-05
  5.2856468e-04
 -8.6784166e-06
 -5.7814832e-05
 -9.8253877e-05
  2.4023973e-05
  3.8641479e-06
 -4.5888897e-05
 -6.1242223e-05
  6.9731330e-05
 -2.9129911e-05
  3.4847916e-03
  1.0319427e-04
 -2.8902685e-04
  6.0364728e-05
 -1.6541742e-01
  1.5476903e+00
 -8.0260319e-01
  9.9541873e-01
  2.2480807e-03
 -4.9191996e-05
 -2.3522379e-04
  7.7583943e-05
  1.0691391e-04
 -1.1923834e-04
 -2.1708966e-04
 -8.0318755e-01
  6.7931134e-01
  1.2822571e+00
  6.1981009e-05
 -2.9686886e-01
 -1.1351737e+00
 -1.0259925e+00
  1.9288863e+00
  2.0936952e+00
  1.1385350e+00
 -1.2503985e+00
 -1.0175679e+00
 -8.4718162e-01
  5.0604844e-01
  1.1470780e-04
 -3.5706940e-04
  2.0900220e-01
 -1.9408220e-05
 -8.4260137e-05
 -4.4449803e-01
 -3.0749299e-05
 -1.2353090e+00
  8.9496297e-01
 -2.9829115e-01
 -3.5955174e-05
 -1.0642537e-05
  1.4022189e-04
  8.1772578e-06
  1.6940445e-04
 -1.4179572e-04
 -4.6005228e-04
  9.2021897e-03
  5.3823809e-05
 -8.5583061e-02
  1.6628004e-05
  3.5803467e-03
  9.4269007e-04
  3.7681352e-04
 -6.8710826e-05
  4.0045932e-05
  8.1774854e-04
  1.2437053e-04
  4.1419491e-01
  8.4239304e-02
 -2.1321024e-04
 -6.5056846e-04
  2.0642790e-04
 -4.0783427e-05
  2.4566689e-04
 -1.8629484e+00
 -6.0020930e-01
 -8.1274003e-01
 -4.9779132e-02
 -7.7211249e-01
  1.6621128e-01
  7.1131128e-01
 -2.3873781e-01
  4.0100268e-01
  2.5732731e-04
 -3.7527263e-01
  6.2050050e-01
  2.6264435e-01
  3.4481046e-01
  1.1740538e+00
  3.5885850e-01
  5.9124607e-01
 -3.2924244e-01
 -4.1673575e-02
 -1.1735918e-01
  6.9408727e-01
  1.1499373e+00
  5.6661719e-01
  1.6068177e+00
  1.3396904e-01
  2.1112929e-04
  2.5406069e-01
 -6.9093285e-04
  5.9585547e-01
 -1.8315175e+00
  1.4606859e-01
 -5.2028846e-02
  1.7847267e+00
 -1.1549623e-01
 -2.3505837e-01
  9.9145919e-01
  1.6811713e-04
  5.5581466e-03
 -6.7400520e-05
 -1.1379983e-04
  2.2937105e-05
 -3.9462635e-04
 -1.3256071e+00
 -4.8933688e-01
 -6.7583168e-01
  6.4887438e-04
  1.3815972e+00
  2.1716676e+00
 -1.0749811e-03
  6.5462138e-03
 -2.2168903e-02
 -1.4186044e+00
 -9.2352182e-01
  1.2009722e+00
 -2.2863375e-02
  2.9883458e-04
  1.5176676e-04
  1.1772525e-02
  1.1293215e-04
  2.6529345e-01
  1.2241239e-01
 -7.0067181e-05
  6.0381800e-01
  4.3950552e-01
  4.1340929e-02
  6.6220099e-01
 -5.9301194e-05
 -7.8093253e-06
  1.3213771e-03
  2.9492196e-05
  9.3826675e-05
  5.9895348e-05
 -1.6244438e-04
 -8.4860993e-05
  7.6905021e-04
 -5.0371111e-04
 -9.6724421e-01
  8.7841105e-01
 -9.0778247e-02
  1.6083047e-03
 -1.0041876e-01
  9.1208071e-02
 -2.3764044e-03
  1.0926834e-05
  4.1160078e-04
  1.7889627e-04
  5.6383367e-05
 -1.4869272e-03
 -7.2323078e-06
  4.3806352e-04
 -2.8405094e+00
 -1.0521947e+00
  2.7275779e+00
  6.0130399e-01
  1.4713037e+00
  6.4023018e-01
  2.7781276e-02
 -4.6538200e-05
  8.5487693e-05
 -6.8021769e-04
 -2.6398849e-01
 -1.2394871e+00
 -4.1229682e+00
  1.4110067e-01
 -1.4088805e+00
  2.7911291e-01
  1.8448225e+00
  7.1379137e-01
 -5.2394904e-02
  4.1684919e-04
 -8.5200733e-01
  8.2734518e-02
  7.2094627e-02
  4.2688230e-01
  1.0327165e+00
  3.5146510e-04
 -3.5520676e-01
 -3.7638817e-04
  1.8592739e-02
  1.4280438e+00
  2.0257604e+00
 -9.3540657e-01
  1.6371998e+00
  1.0439628e+00
  1.6816056e+00
  6.1505222e-01
 -5.2648467e-01
 -1.6878068e-05
 -2.8555535e-04
 -2.6862872e-01
 -7.1056738e-06
  7.9543620e-02
  5.7717483e-05
 -2.0532622e+00
 -1.0257970e+00
 -3.7743741e-01
 -8.4441060e-01
 -3.0683532e-01
 -3.2285385e-02
 -7.0000988e-01
 -9.5431656e-01
  5.4542917e-01
 -1.2763636e-01
  4.1208291e-01
  2.8342941e-01
  5.4260431e-04
  2.9011004e-04
 -8.6350989e-04
  4.0665141e-04
 -3.6581085e-05
 -1.6705986e+00
  1.0609263e-02
  1.1335883e+00
  1.0525575e+00
  1.2314343e+00
  1.0315449e+00
  5.4648328e-01
  1.2309456e-04
 -5.3708158e-05
 -1.1728819e-04
  1.4714038e-01
  7.7762413e-01
  1.3852009e+00
  2.0179374e-05
 -1.7009349e+00
 -3.5196070e-05
 -2.0431771e+00
  1.0008079e+00
  2.0429035e-01
  1.0954429e-03
 -4.1700143e-01
  7.3646409e-03
 -4.9095640e-01
 -9.1628420e-01
 -1.3947808e+00
 -5.2466967e-06
 -8.3892727e-03
  7.8910416e-01
  1.9134179e-04
  1.4194798e+00
 -1.5992874e+00
  5.7449347e-01
  2.5135353e-01
 -1.2993834e+00
  2.2368858e+00
  4.0709691e+00
  2.7511191e+00
  1.0686517e+00
 -1.3939088e-05
 -1.8337555e-01
  2.9040556e+00
  2.5259352e+00
 -8.6155266e-01
 -9.4454124e-04
 -1.0629530e-01
  7.6414305e-01
  2.2304192e-01
 -7.5276858e-01
  6.6021359e-01
 -3.6839202e-02
 -9.7299582e-01
  6.9583011e-01
 -1.0345660e+00
 -2.9702587e-03
  1.0035670e+00
  1.3054706e+00
  1.6424792e-01
  2.4110454e-01
 -5.3037775e-01
  1.0044670e+00
  1.6220504e+00
  1.7959172e-02
 -9.8780972e-01
 -1.2374232e+00
  5.5991346e-01
 -3.1434510e+00
 -9.7832315e-02
 -1.0985837e+00
  8.3127299e-05
  5.5557138e-01
 -2.3323941e+00
 -3.4783199e-01
  8.4990092e-02
 -2.1906148e-01
 -1.3630691e-01
 -8.1653208e-01
 -4.2256993e-01
 -4.0986821e-01
  8.6959898e-01
 -2.6166970e-01
 -2.0538284e-01
 -1.9330662e-01
 -6.2857509e-01
  8.0553514e-01
  6.3380444e-01
 -1.5891090e-01
 -2.3855383e-02
  7.8088395e-02
 -3.5488405e-04
 -1.0454813e+00
  1.4644337e-02
  2.9824669e-05
  9.2855312e-02
 -9.9369409e-03
 -2.4087458e-04
 -7.1514980e-05
 -8.0980833e-05
  3.0996860e-04
 -1.3813431e-03
  3.6365123e-05
  1.0033787e-04
 -9.1052183e-04
  4.3470794e-05
  1.1999058e-05
 -5.0627801e-05
  4.5347755e-05
  3.4426670e-05
 -4.3664117e-05
  1.2545043e-04
  4.9781305e-05
 -2.7409142e-02
 -1.2513874e-03
  6.7603418e-05
  9.4328068e-05
 -1.9247901e-04
 -2.9498273e-05
 -6.7364192e-05
 -2.7023561e-05
  8.2505772e-05
  1.8005815e-04
 -1.1600078e+00
 -1.0316780e+00
  1.2664926e+00
  1.7492086e+00
 -1.7808208e+00
  1.6009636e+00
  6.1489589e-04
 -2.9007354e-04
  4.2054802e-04
 -2.1756360e-01
  2.2889788e+00
 -6.6773534e-01
 -1.5550831e-01
  8.0045128e-01
  4.0994239e-01
 -5.1121835e-05
 -1.0359899e+00
 -5.4165387e-01
  1.5769311e+00
  1.3487492e+00
 -1.5256156e-06
  4.2444277e-01
 -1.3959799e+00
 -3.5244467e+00
  6.8878555e-01
  3.5782926e-02
  5.3264672e-01
  5.1595604e-01
 -2.3262878e-04
  2.2970795e-04
  4.0380388e-01
  3.5704435e-03
  1.4862179e+00
 -4.5700395e-03
  2.2652063e-01
  7.4372307e-04
  1.9654859e-04
  1.7134371e-04
 -5.3325505e-04
 -5.0927611e-05
 -2.1355331e-06
  9.3668241e-05
  2.6859684e-04
  5.3938318e-05
  3.3223099e-05
 -5.5768123e-05
 -2.0513311e-03
 -6.1543440e-05
 -9.8525581e-04
 -6.7138229e-04
 -1.7653225e-05
  4.3952712e-03
  8.8880288e-06
 -8.5182175e-05
 -9.3274906e-02
  6.8067166e-05
  2.7298881e-04
  2.5111920e-05
 -1.0137003e-05
 -5.3683929e-05
 -4.8949847e-01
 -2.1008870e-01
 -8.9468873e-01
 -1.9789310e+00
 -5.8262486e-02
  7.9587335e-06
 -2.0429827e-03
 -5.6719882e-03
  4.7891179e-05
 -3.8936315e-04
 -3.7622246e-01
 -6.8381613e-01
 -1.5583551e+00
 -2.9139993e+00
 -3.2448504e+00
  5.3669530e-04
 -4.5038661e-01
 -4.5096288e-03
  1.0218565e+00
  7.1598637e-01
 -2.1961067e+00
 -1.0974106e+00
  1.6801099e+00
  4.9260640e+00
 -2.1913238e+00
 -3.2842585e-05
 -7.3084693e-06
  8.0400001e-05
  5.9806658e-05
  6.3429779e-01
 -1.4381629e+00
 -2.5538895e+00
  1.1579789e+00
  2.4658328e-01
 -1.7662834e+00
  3.2910745e+00
  1.0874709e+00
  1.7840521e-01
  8.2045706e-04
 -2.0345505e-02
  1.0437440e+00
 -5.0208521e-01
  7.0919611e-02
 -1.9586496e-01
 -8.0811106e-02
  1.0090276e+00
  2.1215346e-02
 -9.4595021e-01
 -4.6070445e-01
  2.2809808e-01
  3.2901672e-01
  1.0530496e+00
 -1.2289693e+00
 -2.0463371e+00
  7.7841423e-02
  3.7027702e-02
  3.0534938e-01
  1.2870141e+00
 -3.0733788e-01
  1.5594929e-01
  9.6227676e-01
 -6.3472623e-01
 -1.0759488e+00
 -6.7277080e-01
 -1.0380039e+00
 -5.1736908e+00
 -1.0870924e+00
 -4.7973127e+00
 -5.3676195e-03
 -8.1083745e-01
 -8.9556333e-03
  8.2162160e-01
 -1.6483256e+00
 -1.7922249e-01
 -1.0125427e+00
 -1.3085427e+00
 -8.1840432e-01
 -6.4590377e-01
 -1.7428291e-01
 -2.8790029e-02
 -1.9041305e+00
 -7.3271978e-01
 -1.6796054e-01
 -2.9816511e-01
 -1.8186924e-01
 -1.2614630e+00
  6.3628227e-01
  1.2826616e+00
 -2.1482807e-02
  1.8151711e+00
  3.0858800e-01
  3.2295225e+00
 -5.9483737e-01
  2.7805382e-02
 -6.5698695e-01
 -1.8255336e+00
  1.6321516e-01
  4.6477239e-06
  1.2927885e-01
 -1.0827428e-04
 -1.3254437e-01
  4.8104566e-01
 -3.6062014e-01
 -1.4680400e+00
 -3.6962798e-01
 -4.8592385e-02
 -9.5317051e-02
  2.6198061e+00
  1.7182958e+00
 -1.7674344e+00
  3.4354575e-04
 -1.3745053e+00
 -3.7632063e-01
  3.7542301e-01
 -4.4864202e-01
 -5.0294232e-03
 -1.3516833e-03
 -8.7181166e-07
 -1.3568808e-05
 -2.9772368e-01
 -9.3764198e-01
 -1.8726634e+00
 -1.2523649e+00
 -4.7745377e-01
 -2.5565085e-01
  1.4045192e+00
 -2.1846178e-01
 -4.0367324e-02
  1.5984779e-02
  7.0720416e-01
  2.6758547e-05
  2.7533495e-01
 -2.4787569e-01
 -2.0192920e-01
 -1.1911764e+00
  7.6863509e-01
 -3.9110568e-01
  7.0269078e-01
  2.8271863e-01
 -4.9215645e-01
  1.7518901e+00
 -1.2294072e-01
 -9.1926968e-01
  7.3902583e-01
  7.7649868e-01
  4.4578466e-01
 -1.7898430e-01
 -1.1339039e+00
 -2.1577784e-05
  7.4198425e-01
  1.2460225e-01
  4.3888164e-01
  3.0955498e+00
 -9.4245058e-01
  1.4857466e+00
  4.6316665e-02
  1.4641289e+00
  3.1718981e-01
  6.5326178e-01
 -1.3185377e+00
  1.0002539e+00
 -1.2581708e+00
 -1.7835387e+00
 -1.2515765e+00
  3.0041087e+00
 -4.9316713e-01
  1.5716185e-01
 -8.1120872e-01
  5.0999808e-01
 -8.5495502e-01
  4.9244452e-01
 -9.2324984e-01
 -1.7459217e-01
  5.0093490e-01
 -2.2851083e-02
  1.9225494e+00
  1.4928782e+00
 -4.8408464e-01
  3.3867675e-01
  2.3009002e+00
 -5.3302521e-01
  4.1927150e-01
  1.4822305e+00
 -1.6436167e+00
  3.6660120e-01
 -3.0882292e+00
  7.3021507e-01
 -7.7590680e-01
 -1.1247076e+00
 -4.5039469e-01
  2.9097419e+00
 -2.4718264e-01
 -1.8057579e+00
 -1.5019538e+00
  3.4152830e+00
  4.6429285e-01
  4.5326969e-01
  5.3386140e-01
  1.3583722e+00
  6.7403179e-01
  1.6121266e+00
 -1.5098130e+00
  1.4612329e-01
  6.8464434e-01
  2.6325879e-01
  6.4022398e-01
  2.0986624e+00
 -2.4444940e+00
 -9.6738124e-01
  2.7497752e+00
 -3.1104735e-01
 -1.8694253e+00
  8.2201523e-01
 -2.6327400e+00
  1.0096912e+00
  2.7356777e+00
  1.6819743e-03
  1.8164467e-02
  8.7514120e-01
  9.9483710e-03
 -1.5043359e+00
 -7.6725459e-01
 -2.4107082e-01
 -7.0953208e-01
  2.2457696e-01
  2.8997440e+00
 -3.8672501e-05
  1.9180784e+00
  1.4776912e+00
  1.4778712e-01
 -7.6819293e-02
 -2.5622008e-05
  3.1680450e+00
 -7.2621897e-02
 -1.7061125e+00
 -5.4017395e-01
  1.6025428e-04
 -7.0942634e-01
  1.8686103e-02
  1.7210923e-02
  7.6051164e-01
  1.2399076e+00
 -1.1986015e+00
  1.2640820e+00
  3.2673419e+00
  3.3540416e-01
  3.2023137e-04
  2.4120210e-01
 -1.3819782e-04
  1.2789239e+00
 -6.9126785e-02
 -3.5855484e+00
  1.1618842e+00
 -8.2347816e-01
  7.2223067e-01
 -9.6265876e-01
 -4.7196695e-01
 -8.4870023e-01
  1.9279683e-01
  2.3148921e-01
  5.2368420e-01
  1.3438936e+00
  6.8325824e-03
 -4.7890913e-01
  6.0340583e-01
 -1.2044865e-01
  2.1323413e-05
 -3.2949233e-01
  4.8383344e-03
 -5.8358151e-01
  1.6790582e+00
 -2.2763734e+00
  1.5848553e+00
 -2.7795047e-01
 -1.3458086e+00
 -8.5243452e-01
 -2.6411974e-04
 -1.6197523e-06
 -1.0659088e+00
 -9.8012573e-01
 -7.6063675e-01
 -1.7234337e+00
  6.9039333e-01
  9.8367475e-02
  7.0879757e-01
 -1.0957004e+00
 -1.2471987e+00
  1.2492280e+00
  9.3203163e-01
 -5.0415975e-01
 -1.0746778e+00
 -3.6631867e-01
  7.5371832e-02
  1.1899616e+00
 -1.0592192e-01
 -2.6538199e-01
 -8.9991350e-05
 -4.3459055e-01
  1.1562731e+00
  5.3141379e-01
 -1.2262098e-01
 -1.7671494e-01
 -1.1289412e+00
  4.3749908e-01
  6.5812105e-01
 -1.7796755e+00
 -1.4904736e-01
 -8.0227292e-01
 -1.3221021e+00
 -1.1506902e+00
 -3.9752793e-01
  1.0712863e+00
  4.3047252e-01
 -1.0066473e+00
  7.6132029e-01
 -1.3882365e+00
  8.8900745e-01
  1.0340040e+00
  1.0013514e+00
 -9.3597829e-01
  4.6637818e-01
 -4.5272431e-01
  1.8423729e-01
  4.6994832e-01
 -1.3087187e+00
  2.3391886e+00
 -3.7303183e-04
  1.0742519e+00
  8.5763729e-01
  2.2085701e-01
 -2.6081610e-01
  1.6828856e+00
 -1.9308099e+00
  5.1934105e-01
  2.4107258e+00
 -5.2653879e-01
 -1.2222364e+00
  1.9513763e+00
 -3.9534198e-04
 -7.0542455e-01
  7.7335411e-01
 -1.4384520e-01
  7.5263506e-01
  1.0033460e-01
  6.1233014e-01
 -2.0558341e+00
  8.2961363e-01
  3.9606753e-01
 -2.1925133e-01
  5.5775368e-01
 -7.9659969e-01
  1.1026123e+00
 -1.2808111e+00
 -9.1122496e-01
  1.3154554e-01
 -1.9555440e+00
 -1.2384783e-03
 -2.4211590e+00
 -2.5631997e-01
 -7.4273783e-01
 -1.2994568e-01
 -7.7196270e-01
 -4.3894246e-02
 -5.8407539e-01
 -2.4948437e+00
  8.2975364e-01
  2.6429923e-06
 -3.2043189e-02
  7.1136099e-01
 -7.5144875e-05
  3.7872276e-01
 -5.7885927e-01
 -1.9135902e+00
  3.5059196e-01
  2.0474346e+00
 -4.9302778e-01
 -7.1148044e-01
 -4.6944827e-01
  6.0999125e-01
  7.0238638e-01
  1.9348983e-01
 -2.2886623e-01
 -5.1327795e-01
  1.8512061e+00
 -9.0181094e-01
  1.3097514e-01
  1.7889813e-01
  2.0477710e-02
  3.8778145e-02
  9.3672937e-01
 -5.9790802e-01
  1.0737832e-01
 -6.4503856e-02
  7.8036879e-05
 -4.8603331e-05
 -7.6185752e-05
 -3.8615082e-04
 -1.2697434e-04
 -5.2582227e-06
 -6.0701469e-04
 -2.6126447e-04
 -2.6287218e-05
 -2.9922070e-04
  2.2614657e-05
 -5.9924161e-01
  1.9674574e-04
  1.6570440e-05
  4.1682251e-05
  2.8581702e-04
  2.0528663e-04
  2.2918662e-01
  2.1962506e-04
  3.9015664e-03
  3.0858902e-02
 -1.3349892e-05
  8.5407664e-06
 -7.2876974e-05
  1.4011992e-05
  1.0513209e-04
 -1.6939151e-05
  5.4608405e-01
 -1.3292842e+00
  1.3620542e+00
  2.3467295e-01
  7.7303881e-03
 -1.1626153e-04
  5.5367281e-07
 -3.1393356e-04
  1.5449250e-05
  6.6698954e-04
  1.3323789e+00
 -3.9878953e-05
  1.8491238e-01
  8.2788810e-02
  6.5920430e-01
 -4.7802517e-01
  5.1700156e-02
  3.1635702e-01
 -1.2412975e-02
  5.8019799e-01
  1.9477309e-01
 -9.0589974e-06
 -2.6774392e-01
  2.5908291e-01
  2.3593237e-01
  3.7525419e-02
  3.9128104e-04
  3.6301368e-05
  2.8941429e-05
  5.0570699e-04
 -7.1022099e-01
  1.7900583e+00
 -5.4579474e-02
  3.5134633e+00
 -1.0895699e+00
 -1.0479172e+00
  8.4348925e-05
  1.2426118e-03
 -9.8905981e-02
 -8.5800701e-01
 -3.6474413e-01
 -8.6662965e-03
 -2.2429946e-01
  6.9361764e-01
 -1.1359842e-01
  2.8231084e-01
  2.1743260e-01
  1.9869396e-01
 -2.0506047e-01
  2.2612187e-01
 -1.5004206e+00
 -1.3002146e+00
 -9.0274781e-01
  6.7861326e-02
  1.3595927e+00
 -1.0018033e+00
 -3.7851378e-01
 -5.9563267e-01
 -5.0589057e-05
 -9.2656183e-04
  3.5528454e-01
 -1.8191446e+00
  1.5865635e+00
  8.9712065e-01
 -2.0715945e+00
  1.8730334e+00
 -1.0714985e-03
 -9.0482777e-01
  1.1974472e+00
 -3.2610163e-01
  1.1583645e+00
  1.9360322e+00
 -1.4813974e-01
 -6.6901529e-01
 -6.7614156e-01
 -2.4388245e-01
  3.2196146e-01
  3.1512731e-01
 -2.1251565e-01
 -4.7375321e-01
 -1.8456850e-02
 -1.0098131e+00
 -6.4586163e-01
  4.8460495e-01
  2.7737662e-01
 -1.4008475e-02
  8.6690756e-03
 -3.4348816e-01
 -3.8939005e-01
 -9.3804181e-01
  3.2202217e-01
 -1.0588791e-02
 -1.0562844e+00
  2.4811003e+00
 -9.1927099e-01
  5.1553128e-05
 -3.2514040e-04
  3.9763626e-04
 -1.9327991e-03
 -3.5706785e-04
  1.2481768e-01
 -1.3637299e-02
  6.2434480e-02
  9.1455271e-04
  4.6210233e-03
  1.4170426e+00
  1.1657386e+00
  1.6116555e+00
 -1.1231845e-04
  1.8071817e+00
  3.2573259e-01
 -2.1646356e-03
 -8.5431206e-01
 -1.6249974e+00
  3.2225416e-05
  2.1922426e-01
 -6.4176664e-04
  9.8781136e-05
  3.7299944e-03
  5.3025037e-04
 -1.8899752e-01
 -4.0699270e-01
 -1.5355176e+00
 -7.1286517e-01
 -1.4216325e+00
  3.3950558e-04
  3.1175485e-05
 -2.2454033e-04
  5.9640193e-01
  4.1838826e-05
  5.4754347e-01
 -2.7938240e-05
 -9.2103016e-03
 -3.9867637e-01
  8.9156163e-01
  6.8900740e-01
 -2.3394244e+00
 -1.2981700e-03
 -7.1665806e-01
  1.9887477e-01
 -2.8012773e-01
 -8.0205494e-01
 -4.2721859e-01
  5.8389200e-05
 -2.4944940e-03
  1.3995595e-05
  5.1228178e-04
  4.3467986e-05
 -2.0210675e-04
  4.2204747e-01
 -1.0265148e+00
 -1.3473684e-02
  2.7466366e-01
  2.3752356e+00
  2.7900296e-01
 -4.8010286e-05
  6.2191182e-05
  2.8103015e-05
  1.2463280e-02
 -3.2186825e-05
 -6.2741172e-05
  2.4142065e-04
  1.9477969e-01
  1.9524885e-02
 -4.3813161e-05
  4.8791432e-01
 -1.5860140e-01
  1.9268516e-06
 -9.0505695e-01
 -1.9021556e-01
  9.8498124e-01
 -4.9067062e-04
  1.8161703e+00
  1.7301655e-01
  3.1441879e-01
  7.0241033e-05
 -1.9102225e-04
  7.5489556e-06
 -5.9380598e-04
 -1.1287726e-04
  2.5671080e-02
  1.7693858e+00
 -3.1461541e-02
  2.0293958e+00
 -2.7597818e-01
 -5.4386635e-03
 -6.8094155e-06
 -4.0488143e-04
  2.3836383e-05
 -5.3252596e-01
 -7.0291166e-03
 -2.4772829e-01
 -3.2334208e-01
  2.0697612e-01
 -2.8613871e-01
  2.0597662e-01
 -8.1197828e-01
  1.2399308e-01
  1.8153697e-01
 -2.0263851e+00
  2.8687257e-02
 -1.8339875e-01
  5.8125877e-01
 -8.4787285e-01
 -2.4921761e+00
 -1.6691698e-02
 -2.0025508e-04
 -1.1263108e-03
 -1.2324277e-03
 -1.7794686e-05
  5.8047519e+00
  1.3440721e-01
 -5.2571183e-01
 -1.0693441e-01
 -3.2373004e+00
  7.9394325e-05
 -2.7987239e-04
  9.7263324e-01
  1.2977960e+00
  8.1592906e-01
 -3.4583867e-01
  1.1804138e-04
  9.4369603e-03
  3.7761740e-05
 -4.6644095e-02
 -7.5066113e-01
  3.8384488e-03
 -3.4143679e+00
 -2.8048892e+00
 -3.9875740e-04
  1.2076494e+00
 -3.3257497e-04
 -4.6851352e-01
 -8.7874460e-01
 -4.4838279e-01
 -2.2337773e-01
  1.1622416e-04
  1.8775430e-05
 -1.4567154e-04
 -1.5010213e-04
 -8.3911583e-02
 -1.1191951e+00
  4.1010559e-01
  3.7966442e+00
  1.4294991e-01
 -1.5919976e+00
 -3.1068885e-01
 -7.8398615e-01
  4.1276187e-04
 -1.1963086e-04
 -1.1654180e+00
  2.1864150e-01
 -2.4893496e+00
 -1.3772887e-01
  6.6465378e-02
 -6.9067645e-01
 -3.2265040e-01
  2.4315345e+00
  5.5644266e-02
  7.8442317e-01
 -4.4331640e-01
  2.4193091e+00
 -3.8647854e-01
  2.3034949e+00
  3.7632081e-01
  5.1805810e-06
  2.2318312e-03
  2.9035032e-04
 -8.0950667e-05
  5.7765395e-05
 -4.5174011e-04
 -3.9790056e-04
  9.7312004e-05
 -1.0176082e-05
  2.2141606e-04
  6.7063294e-05
  1.1225781e-05
 -9.8868601e-05
  5.5506142e-05
  1.2301404e-05
 -3.7601265e-05
  6.7861780e-04
 -3.6360559e-03
 -1.0049337e-04
  7.1502924e-05
  5.2480644e-04
  1.0858491e-06
 -6.4900029e-05
  3.0653086e-05
  1.9948824e-05
 -1.7966356e-04
  3.5476484e-04
 -1.3389445e-03
 -1.8527351e-04
 -8.3078246e-04
 -1.3039323e-06
 -1.2533691e-04
  1.1003323e-04
  1.8303090e-04
 -5.0311530e-05
 -1.7001740e+00
  2.1528554e+00
 -2.3812728e+00
 -5.4411471e-01
  1.0583495e+00
 -8.9447449e-06
  1.2528728e-04
  5.1300135e-04
  4.8750729e-04
  4.7299211e-05
 -6.5530397e-02
 -2.6491189e-01
 -2.6043296e+00
 -2.2237080e-03
  3.7125662e-01
 -2.1211634e+00
  6.2804914e-01
  2.5798705e+00
  1.5490027e-01
  1.2240524e+00
 -3.6632800e+00
 -1.5786504e+00
  1.4646149e+00
 -2.8235934e-04
 -1.4445754e+00
  7.4703830e-01
 -6.2517775e-04
  4.3322918e-01
  4.6601284e-01
  6.3730204e-01
  7.4212945e-01
 -2.2117426e-01
 -5.1761001e-01
 -1.9605879e-02
 -2.4588242e+00
 -2.8479331e+00
 -1.4770423e-01
 -1.7161531e+00
 -2.6509514e-02
 -3.3922619e-01
 -2.4379636e-01
 -5.2384748e-05
  1.7539105e+00
 -1.8488158e+00
 -9.1441303e-02
 -6.0675246e-01
 -1.9051652e+00
  5.7097661e-01
  7.2907674e-01
 -5.1687747e-01
 -4.3541765e-01
 -2.6768723e-01
 -1.0952321e+00
  7.6232386e-01
  1.1824992e+00
 -1.1289376e+00
  4.8897266e-02
 -1.6191047e+00
 -3.0188341e-04
  1.7448268e+00
  1.4828674e+00
 -1.0641767e+00
 -1.1679469e+00
  1.2158371e+00
  7.6405066e-01
  4.5847701e-05
 -1.2098930e-04
 -4.6790743e-04
  7.1431696e-04
  1.2538618e-04
 -1.2458019e+00
 -6.5550548e-01
 -1.3304006e+00
 -8.2492018e-01
 -9.5992333e-01
  1.4365296e+00
  5.0958883e-02
  1.4619688e+00
  7.3906463e-01
  7.8930879e-01
  9.1184926e-01
 -2.4523288e-02
 -1.1037081e+00
  1.0857583e+00
 -1.6440680e-02
 -9.8594725e-01
 -3.3805642e-05
 -1.5954372e-01
 -2.3279174e-05
 -6.3317851e-03
  4.2809796e+00
 -9.3483888e-03
 -3.7203139e-01
 -3.9747614e-01
 -4.3547563e-02
  1.4775627e-03
 -3.2254495e-04
 -5.2577406e-01
 -4.7370872e-01
 -1.5223071e-03
  9.0626538e-01
  1.1466335e+00
  3.5037878e-01
 -1.4657348e+00
  1.9860630e+00
  1.5883499e-03
 -4.3123469e-02
 -4.0776879e-02
  1.1695684e+00
 -1.3774441e+00
 -7.1000624e-01
  1.0025051e-01
  2.6377489e-07
 -2.3814313e-02
  7.7558738e-01
  1.7498380e-01
  5.7929177e-05
 -3.7391219e-04
  2.6103063e-02
  1.8024522e-05
 -6.0450864e-01
  1.9708988e-01
 -6.5942824e-01
  1.5129772e+00
  1.5656244e+00
 -2.6171677e+00
 -3.0011742e-04
  7.9118681e-01
  3.5561949e-01
  7.0144427e-01
 -8.0263275e-01
  7.9451776e-01
 -1.1029963e+00
 -4.7412429e-02
 -6.7637348e-01
  1.0773937e-01
  1.2260097e+00
 -1.3512257e+00
  3.4280905e-01
 -8.1869900e-01
 -1.6080604e+00
 -1.8474374e+00
  8.2767844e-01
  1.7112875e+00
 -4.3024547e-02
  2.4716982e-01
 -5.6666450e-04
  3.9846379e-02
  2.9497655e-04
 -5.3896952e-01
 -1.6420429e+00
  5.4464410e-05
  6.7737174e-01
 -1.1941761e-01
  1.4242460e+00
  4.4214923e-04
 -1.8471309e-03
 -1.8272021e-05
  2.4669092e-05
 -1.3538507e-01
 -1.5086181e+00
  1.5990008e-03
 -7.8042519e-01
  8.7840838e-04
 -6.8632734e-01
 -1.8881099e+00
 -1.8101272e-01
  8.8791984e-01
 -3.0264037e+00
  7.2683102e-01
 -1.5210215e+00
 -4.4871072e-04
  8.9342755e-01
  1.4651554e+00
 -2.3051214e-01
  5.1991962e-04
  3.1131156e-05
  1.8317680e-05
 -6.0968316e-04
 -8.8789314e-02
 -7.8647029e-01
 -4.9877375e-01
  1.6086304e-01
 -2.4494963e+00
 -2.9355025e-01
  2.7334201e-01
  5.1014751e-05
 -4.8673004e-01
 -5.9283578e-01
  1.8130065e+00
  1.1110120e+00
 -7.2503972e-01
  2.3034000e+00
  9.7379798e-01
  1.5229038e+00
 -6.6424024e-01
 -2.0318682e+00
  1.0935178e+00
  4.4360006e-01
  2.4475795e-01
 -1.1426724e+00
  1.6145287e-01
 -1.6132175e+00
  2.7332343e-02
 -2.4627206e-01
  3.7778369e-01
  1.6147429e-01
 -9.5955932e-01
 -4.3988243e-02
 -1.0078736e-01
  6.8028202e+00
 -6.4157200e-01
 -1.7686443e-03
 -2.6081041e-05
  1.3293409e-04
 -4.0610157e-05
 -2.7359661e-04
 -1.0103323e+00
 -8.6167896e-01
 -1.4932958e-03
  1.3870219e+00
  5.8323807e-01
 -1.9660733e-05
 -3.4351482e+00
  9.9539989e-01
  2.7126038e-01
  2.4224311e-04
  2.2759931e+00
  1.4983710e-02
 -5.8041569e-03
 -1.1343765e-03
  2.1543692e-01
  1.7243465e-04
  1.1054528e-03
  1.1516142e+00
  2.7462927e-04
 -7.2689139e-04
 -1.2887738e-04
 -4.6201513e-04
 -1.6813800e-03
 -1.2935610e+00
 -6.1589364e-02
 -3.1424984e-02
  2.0812666e+00
 -1.3826503e-01
 -2.8981300e-04
  8.9334621e-04
  3.9960685e-01
 -1.3892798e-04
  1.1724903e-01
  5.5790365e-01
  6.4261858e-06
 -7.7429563e-02
 -8.8378278e-05
  8.3694011e-02
  1.0840634e+00
 -1.3534449e+00
  4.9292628e-04
  3.6197054e+00
 -1.5222114e-02
  2.0651928e-01
  3.0175789e-04
  1.9735166e+00
  5.2050617e-02
  1.9161260e-01
  6.4070796e-04
 -2.0904461e-05
 -4.3765518e-05
  3.2705240e-05
 -2.3178223e-05
 -2.6679382e+00
  2.7773091e-01
  1.0404885e+00
  5.9923625e-01
  1.2601663e-01
 -7.0891745e-04
 -2.2296983e-05
  9.4042532e-02
  1.8511117e+00
  2.6812204e-04
  1.0467952e-03
 -2.7565610e-01
 -3.4373716e-04
 -2.2526358e-01
  9.4690232e-04
 -5.9320080e-01
  2.7044699e+00
  8.1290483e-01
  1.8535087e-01
  4.6495339e-01
  1.8989189e+00
 -4.4210996e-05
  2.5508630e-01
 -2.1786308e+00
 -2.4276467e-01
 -2.0193323e-02
  1.2820196e-05
  3.7693963e-03
 -2.9319340e-01
 -8.8416678e-01
 -5.5339688e-01
  1.3322827e+00
 -6.0117859e-01
 -1.0101478e+00
 -2.5296967e+00
  3.3388141e-01
  1.9430184e-01
  7.1708250e-01
 -2.2575221e-05
  2.8756902e+00
  8.8293058e-01
  3.0920795e-01
 -5.3916615e-01
 -2.3188201e-01
 -4.0049109e-01
  1.6260661e-01
  3.0674845e-01
 -1.9087206e+00
  1.6555232e+00
 -2.0991616e+00
 -2.1400216e+00
  3.5637754e-01
 -2.8389375e+00
 -1.8323184e+00
  5.0341594e-01
 -1.7981817e-01
 -4.7704631e-05
  4.9218561e-06
  4.5674760e-03
  1.2428858e-04
 -3.9798137e-02
  1.1250551e+00
 -5.1625043e-01
 -5.1649753e-03
  5.3424899e-02
  5.0785275e-05
 -2.0018447e-04
  4.9292183e-05
  8.3516359e-05
 -1.6842413e-04
 -4.1684229e-02
 -1.5180183e-04
 -2.4302779e-03
  2.2216511e-04
 -5.0739651e-03
  6.7671225e-03
 -1.2064391e-03
  2.3345592e-02
  2.3636267e-02
  2.2660163e-03
  3.5629255e-01
 -4.8926195e-05
 -4.6036310e-02
  1.9930767e-04
 -9.8254380e-04
 -2.7548185e-05
 -2.0328809e-04
 -2.3400576e-06
  1.1339031e-05
  3.5906976e-04
 -4.9138657e-04
 -1.0316899e-04
  1.0851225e-03
 -1.0550590e-04
  3.1815540e-05
  1.0242524e-04
 -3.3025775e-04
 -3.4644158e-04
  2.1964393e-05
  1.2841850e-05
  3.3623666e-05
 -4.1473882e-05
 -1.2347085e-05
  6.8944960e-04
 -1.4818532e-05
 -1.6597506e-04
 -9.1700989e-05
  1.1787965e-05
 -1.8029971e-03
 -3.8226903e-04
 -1.0685168e-04
 -4.8244128e-06
  4.0808416e-05
  1.3745297e-04
  8.5586515e-05
 -2.8078830e-05
 -9.2209099e-05
  1.0800827e-05
  1.0300858e-04
 -7.1898277e-04
 -8.3750874e-01
  8.3609581e-01
  1.6216029e+00
  3.7913099e-02
 -1.4093124e+00
  1.1395557e+00
 -8.9438397e-01
  1.8017079e-01
 -4.5371783e-01
  7.9878056e-01
  8.7965852e-01
 -1.1008742e+00
 -2.1817932e+00
 -9.1146028e-01
  2.5454751e-01
 -1.5919455e+00
  1.5356472e+00
  6.0913885e-01
 -1.6036697e-01
  6.0380238e-01
 -3.8528112e-01
 -2.1748016e+00
 -1.0671818e+00
 -4.1297865e-01
 -5.2906495e-01
  3.1908897e-01
  2.2492982e-01
 -7.7865458e-01
 -6.7055804e-01
  1.9901068e+00
  7.9254001e-01
  2.1097798e+00
  2.7893240e+00
 -1.8380040e+00
 -3.3916600e+00
  1.5980762e+00
 -3.4056726e-01
  4.9695000e-01
 -1.5853258e+00
  3.0660512e+00
 -3.7840003e-01
 -2.5079775e+00
 -7.1459895e-01
 -1.0118427e+00
  4.1392967e-01
 -8.9117646e-01
  4.8004541e-01
 -8.4858251e-01
 -1.6570331e+00
  6.5180814e-01
 -1.3560638e+00
 -3.1071613e+00
 -3.6737821e-01
  1.4711295e+00
 -2.1296902e+00
 -4.7117901e-01
  1.3120592e+00
  9.4453287e-01
 -5.4949605e-01
  7.2880518e-01
 -1.8628397e+01
  3.9419312e-02
 -4.0247861e-01
  2.5420740e+00
  1.5623738e+00
 -1.1223561e+00
 -1.5517487e-01
  1.3599408e+00
  1.2243793e+00
  1.8189032e+00
  1.0230641e+00
 -1.1768640e+00
  7.0615149e-01
 -1.2950368e-01
 -2.6838450e+00
  4.3346043e+00
  3.8922706e+00
 -3.0206019e-01
 -9.3505591e-01
 -7.4294150e-01
  2.1311669e+00
 -1.3890007e+00
 -3.1731851e-02
  2.2786269e+00
  2.5632133e+00
 -1.0370709e+00
  6.6449296e-01
  4.5604587e-01
 -4.0614134e-01
 -1.8890544e+00
 -1.8888801e+00
 -4.6350217e-01
  2.5038402e+00
 -8.2362348e-01
  1.4856501e+00
 -1.8854710e+00
  1.5556653e+00
 -4.5922080e-01
  2.2109890e+00
  1.3588120e+00
  1.8216746e+00
 -2.1237209e+00
 -2.3793595e+00
 -8.7711900e-01
 -6.1626542e-01
  1.5688542e+00
 -2.1303649e+00
  9.4116676e-01
  5.0683397e-01
  7.8244710e-01
 -1.6956683e+00
 -1.6744263e+00
 -1.4126091e+00
 -1.3765813e+00
 -3.8543370e+00
 -1.5037946e+00
 -1.0054557e+00
 -9.2736292e-01
 -3.9417431e-01
  1.5266269e+00
  9.9217975e-01
 -3.6243814e-01
  2.3076084e+00
  2.6706915e+00
  5.2200305e-01
 -5.3625590e-01
 -2.6190269e+00
 -1.1973561e+00
 -1.7327394e+00
 -2.0361171e+00
 -1.0395118e+00
 -7.6018620e-01
  9.6595192e-01
 -4.1109788e-01
 -1.2253079e+00
  1.5803092e+00
 -5.2110004e-01
 -6.3979685e-02
  3.9580133e-02
  6.4348537e-01
  8.8584900e-01
  8.1351280e-02
 -3.2387382e-01
  2.7577662e-01
 -2.4528756e+00
 -1.5108837e+00
 -3.1946192e+00
  1.6131768e-01
  1.8378112e-01
  8.5559142e-01
  1.9910442e+00
 -7.9923338e-01
  1.2647928e-01
  3.7371573e-01
 -2.1232028e+00
 -1.4130267e+00
 -2.9172394e+00
 -3.2380340e-01
 -3.7674105e-01
 -1.0678908e+00
  6.5585345e-02
 -8.2646739e-01
  9.4414747e-01
 -1.4809610e+00
  1.6539865e+00
 -1.6544226e+00
 -3.6718547e-01
  2.5211167e+00
 -4.6165389e-01
  1.6826500e+00
 -2.6777415e+00
 -7.1181828e-01
 -6.2710261e-01
  4.4025475e-01
 -4.6055490e-01
 -1.4906687e-01
 -4.1202087e-02
 -9.6736872e-01
  2.1149778e+00
  2.3454351e+00
  1.5349901e+00
  1.7640523e+00
 -1.8237387e+00
 -2.4996166e+00
 -2.1408420e+00
  1.8166034e+00
  6.3978703e-05
  1.6735199e-01
 -1.4081852e-01
  1.9223230e-01
  7.1916645e-03
 -2.0348537e+00
  6.2518471e-01
 -1.6289378e+00
 -6.6150171e-01
 -1.6890526e+00
  2.6757601e-01
 -3.1901583e-01
  4.0216967e-01
  3.1291708e-01
  3.1673616e-01
  9.9452907e-01
 -9.9589258e-01
 -1.4465067e+00
 -1.0862207e+00
 -1.1980277e-01
 -3.2700782e+00
  5.9105206e-01
 -1.4258039e-01
 -4.3453589e-01
  1.8036895e-01
  2.8720501e-01
 -1.9041516e+00
  4.9082723e-01
 -8.7762594e-01
  1.5970406e-01
 -3.0688995e-01
 -8.4115639e-03
 -7.4066633e-01
  7.9658848e-01
 -3.0634360e+00
  1.0059757e-01
  2.2935534e+00
 -2.0710459e+00
 -1.5171711e+00
 -1.0544035e-01
 -6.3477916e-01
 -8.3977616e-01
  1.0277572e+00
 -1.5203100e+00
 -1.3868518e+00
 -2.6012514e+00
 -1.5253865e+00
 -1.3121420e-01
  2.9371748e+00
 -7.9673463e-03
 -3.7766090e-01
  1.9051743e+00
 -7.2872156e-01
 -1.3734607e-01
 -2.4101903e+00
 -1.8729734e+00
 -9.2168760e-01
  2.0909187e-01
 -1.0572143e+00
 -1.1041085e+00
 -1.3467972e+00
 -6.0205376e-01
 -2.4082167e+00
  2.9983015e+00
  1.5028024e+00
 -1.3752569e-01
  4.7618551e+00
  1.0849062e+00
  3.4818032e-01
 -5.0886208e-01
 -8.3030468e-01
 -1.4765787e+00
 -1.2828238e+00
  2.1240410e-01
 -2.4868479e+00
 -1.3728187e+00
 -6.5591323e-01
  1.1005783e+00
  8.0551076e-01
  1.1715906e-01
  2.7525198e-01
 -1.1032017e-01
  1.1031985e+00
  6.5241283e-01
  2.5426283e-01
 -6.2732387e-01
 -1.4127854e+00
 -4.0593618e-03
 -5.3619844e-01
 -1.1266971e+00
 -1.9499986e+00
 -5.0801134e-01
  2.4463134e-01
 -9.7420400e-01
  1.7661951e+00
 -7.0231065e-02
  8.5426800e-02
  4.0105051e-01
  2.7925758e+00
  1.3874145e+00
 -3.3039529e+00
 -1.0369103e-03
 -4.9203876e-01
  5.5648357e-01
  2.9040614e-01
  1.2640299e+00
 -8.2088083e-01
 -1.7943302e+00
  1.8904351e+00
  9.5582408e-01
  7.0027286e-01
 -6.7897290e-01
  7.1166474e-01
 -7.8677768e-01
 -7.8383487e-01
  4.5348680e-01
 -6.7947179e-01
  1.1736925e+00
  2.1638672e-01
 -2.3612936e-01
  3.6594278e-01
  8.2140195e-01
 -4.3173516e-01
 -2.9292986e-01
  1.1476107e+00
  2.4328078e-01
 -1.9426851e-02
 -3.1622723e-01
  1.8644814e-01
  1.3060731e-01
 -2.1082824e-02
 -3.0826938e-01
  1.3115129e+00
  1.2043903e+00
  1.2433691e+00
 -2.1159077e-01
 -2.9516063e+00
 -8.4575784e-01
 -5.0760072e-01
  3.2649014e-02
 -2.1109080e-01
  1.1699984e+00
  1.0053457e+00
  1.2660174e+00
  2.5573483e+00
  4.8727006e-02
 -4.9262759e-01
  6.7713511e-01
  2.2126752e-01
 -3.9530841e-01
 -1.0755317e+00
 -1.1053733e-01
 -2.2595251e-01
  8.2041967e-01
  1.7832724e+00
 -1.0510435e-01
  7.8699708e-01
  6.8658280e-01
  1.0952567e+00
 -1.8016964e-01
  3.8411543e-01
  5.8711225e-01
  1.3667052e+00
  3.8587382e-01
  2.2817382e-01
 -5.2435184e-01
  5.7431406e-01
  1.3247777e+00
 -2.7602145e-01
  2.6566264e-01
 -5.6728631e-01
 -8.7927282e-02
  1.3159831e+00
 -6.8582274e-02
 -1.9680004e+00
  5.1576436e-01
 -1.7324278e+00
 -1.3217406e+00
 -2.0994911e+00
 -9.1951197e-01
 -1.1286825e+00
 -1.7867223e+00
 -1.9601218e+00
 -9.7306621e-01
 -1.1986088e+00
  3.2768282e-01
 -6.8279237e-01
 -4.6866674e-02
  3.0337214e-01
  5.1244742e-01
  3.2928085e-01
 -8.8117176e-01
 -5.0102431e-01
 -9.3969244e-01
 -2.8463742e-01
 -2.8187981e-02
  1.0657852e+00
 -2.0017432e-01
 -1.0027484e-02
 -2.4094737e+00
 -1.4570651e+00
  6.5150666e-01
 -6.7066556e-01
  4.2065252e-02
  5.1329970e-01
  4.2560560e-01
  2.5779673e-01
  9.5794583e-03
 -1.2083775e+00
 -5.2320763e-02
  1.2978320e+00
  1.6488386e+00
  1.5967515e-01
  3.9189306e-01
  1.3568659e+00
  6.3828230e-01
 -1.6451845e+00
  2.0783457e-01
  2.7243669e+00
  2.0308517e-01
 -5.8700311e-01
 -3.4985742e-01
 -1.3174331e+00
 -6.3026315e-01
 -3.3488521e-01
  1.0694945e+00
  1.3342185e+00
 -1.5814240e+00
 -1.2650771e+00
 -8.5546881e-01
  4.1875312e-01
  2.6428232e-01
  8.5156715e-01
 -6.0744369e-01
 -3.1694651e-02
  1.1770596e-02
  1.1770596e-02
  1.1770596e-02
  1.1770596e-02
  1.1770596e-02
  1.5871381e-02
  1.5871381e-02
  1.5871381e-02
  1.5871381e-02
  1.5871381e-02
  3.1467441e-02
  3.1467441e-02
  3.1467441e-02
  3.1467441e-02
  3.1467441e-02
  2.6046254e-02
  2.6046254e-02
  2.6046254e-02
  2.6046254e-02
  2.6046254e-02
  1.0847920e-02
  1.0847920e-02
  1.0847920e-02
  1.0847920e-02
  1.0847920e-02
  1.6048267e-02
  1.6048267e-02
  1.6048267e-02
  1.6048267e-02
  1.6048267e-02
